#include <linux/init.h>
#include <linux/cache.h>
#include "nn_policy.h"

const unsigned int slice_values[OUTPUT_SIZE] = {350000,420000,490000,560000,630000,700000,770000,840000,910000,980000,1050000};

const q32_32 W1[50][8] = {
    { 881930548, 1448090775, 213814882, -116375399, 1239171278, 1419481681, -537144651, -1075366536 },
    { -1942142898, 91790669, -925763354, -1855313235, -1079742629, 35388875, 441993643, -341069995 },
    { 3292442327, 4536212900, 3475619053, 3591315041, 4144336829, -3108908832, 1575444163, 177734523 },
    { -4056605080, 215833984, 975167944, 2622960085, -5525776602, -832853459, -255165701, -389633309 },
    { 1138124386, 2068066632, -1026079295, -224740873, 2265858351, -6221555292, -2825946894, 1931781782 },
    { 5351643059, -93116645, -725347529, 2739721482, -270468081, 1263979989, -2792294643, -4262040861 },
    { -2510615214, -2087634176, -618306009, 1657207130, -1270327534, 1077681460, 920292253, 1026895485 },
    { -963767892, 702897083, -1148004947, 941327678, -737769680, -3230246957, -3025828146, 1338247161 },
    { 2709408854, -2932464652, 1394576659, -314846117, -675759296, -5606710071, -2006843335, 2545299747 },
    { -381973638, -1422507866, -3357467226, -250486734, -2877380161, 154359707, 3337768608, 215823872 },
    { 3217560215, -3710116012, -740542923, -45783088, -1805859926, -264032017, 1446195192, -1118566066 },
    { -475091536, -985128276, -149500640, -1349311402, 804456941, -741209298, -1069158951, 2792188454 },
    { -520855600, 2625751072, 736059852, 1355801365, -3161565123, -408075723, -847360882, 258186444 },
    { 3789545753, -689605596, 2513680716, -765817565, -903667106, -2475303510, 30707924, -695346178 },
    { -4273065058, -1945960777, 451389740, -1245590799, -1910212110, -4599262020, -1840249509, 67338699 },
    { 2173591136, 1475998905, -1103392890, 79144005, -2986837778, -1441322805, 963916631, 2072711117 },
    { -1320056628, 1568142933, -1247260803, -314158883, 3336314557, -301823251, 665123225, 91719717 },
    { 4353007913, 235580769, 1411728411, -674919704, -2352350828, -392317739, -1023446317, 2306499875 },
    { -2391676183, -2850481502, -483535863, 2866484762, 968294538, 676608560, 215404767, 1313114196 },
    { 2662000214, -2795109517, -428759728, -249705922, 3206285570, -256989363, 3123540119, -2901610337 },
    { -497683884, -1293096377, 1073533777, -4499154070, 203577383, 1824338244, 2510672201, -2395842656 },
    { -734445099, 1398614283, 2996611471, -1474788623, -1931301826, -103207609, -1690049198, 2105245161 },
    { -760646776, -2647649818, 1738460547, -1790557514, -196682915, 1718435471, -1050365250, -139244760 },
    { 340700900, -230718932, 484793980, -2348940382, 3497095843, 4547299316, -1189466346, 11747035 },
    { 1615928460, -330201770, -250256476, 577933329, -599663234, -960722591, -927527494, -804039010 },
    { 2759896608, -1058534624, 2278308304, -588714167, 2977258180, 1042168745, 1706976314, -2152334258 },
    { 2947014866, -525258070, -2232081505, -812277025, 101534893, -6820604, 540016805, 182916850 },
    { -797499534, 1535097620, -2415993402, -3902018724, -530136081, -3126864688, 1770483893, -1240323618 },
    { 2444270222, 1521634602, -1634519577, -2379379846, -468232265, 357931292, -3143805413, 404552425 },
    { -4229649674, -860054492, 1566459678, 752565259, 1635500971, 436301089, -1631960624, -559654265 },
    { 2104642786, -2054117330, -825954822, -1535373017, -941009726, -3191297509, 1341129697, -884087636 },
    { 552793749, 916443484, 2602575248, 3490182579, 819247119, -228662426, -3504983887, 3156258215 },
    { -121499739, -2026118953, -2369126987, -188829250, -657757907, 1392396305, 4759692197, 666769167 },
    { 836332765, -679031385, 1143843587, 374409127, 1351439081, 4277128262, 856332938, -484611913 },
    { -1436672911, -1044543830, -6785883596, -723744941, 4549451477, 850078534, 2635763392, -2361069008 },
    { -2191934010, 2805890507, 98463569, -578251514, 1611615934, 404458684, 3865691450, -1981001503 },
    { 3259847590, -933003970, -1669329422, 1350710721, 1805631942, -332512692, -956560657, -1335102184 },
    { -193032450, -1893913619, -2313488211, -1367319981, 1240736477, -694464662, -436373989, -337611182 },
    { -822831133, -939028061, 1049305952, -1124013702, 242792360, 880034566, 7512964822, 10264781 },
    { 2073229954, -2028373416, 1865071465, -1421181453, 2755907801, -178218962, -1463276702, -565570547 },
    { -1860169185, 4282726293, -2365053754, 1061289570, -3024499152, 1150045883, -3181514734, -28245146 },
    { 1578492182, -452427595, -3255360741, 176380478, 1665531069, 2494028167, 2358443402, 3046322254 },
    { -1825687464, -524532110, -1455075750, -158801708, -272097075, 155285048, -7012237551, -464269791 },
    { -3217829897, 756110221, -867382006, 2505634554, -961189877, 751155823, 3226185988, -2512452935 },
    { 746018676, -2917391988, 1236547716, -4061666, 665081349, -3766559617, 1245362048, 1973765786 },
    { 149399679, 4260676803, 2422378572, -1879211385, 1400244578, -72067381, -2033238530, 87316190 },
    { -1195346198, -1467531093, -1068707221, -545714851, 1550506749, 4100573705, 543971272, 1300788661 },
    { 1800707390, -2472551058, -2066102925, -2712727892, -2126381765, 863648587, -421143597, 978852894 },
    { -3236741486, -660758592, 43082759, 45486331, 3427331446, 1102602004, 2313492901, -858357406 },
    { 433294238, 900349810, -1252900904, -1034853690, 823337415, 549223595, 1890492538, -1826093216 },
};

const q32_32 B1[50] = {
    0, 0, 0, 0, 882, -884, 81, 367, -295, -159,
    2321, -2165, -3298, 1773, 0, 86, -265, 0, -351, 10607,
    -275, 9863, 4, -7813, -1, 0, 6328, 1161, -37, 1209,
    -7465, -67, -126, 4569, 0, 10522, 2, -2878, -5721, 16056,
    -637, 0, 0, 867, 2147, 0, -58, -405, -780, -14
};

const q32_32 W2[70][50] = {
    { -498394232, 775374558, 130401816, 414970620, 241009822, -717629239, 1516375461, -1546696198, 16402521, 524321570, -540000947, 508065933, -687377704, -1040998945, -1406652902, 119488313, 39593644, 209756677, 819806050, -75345817, -2244632296, 912093854, -625644395, 758501243, 428840379, 869660089, 871215437, -289873968, -970963932, 15898564, -1664794829, -1095395990, -357322744, -717267687, -793959, 376879712, -963618573, 1557049402, -1553995126, -1698791223, 1920420056, -690926030, 395588300, -560415262, -1071377231, -11017126, 255000532, 149603566, 67657777, 1520478995 },
    { 768777460, 224555147, -1222198567, 2238747073, -268725257, -495662352, 297720044, 539511850, 1379945741, 588944925, -1219391162, 397369150, -90607266, -265373022, -88944231, -260486650, 1546977333, -776273030, 1373458433, 334799955, 580142346, 382571914, 203254922, -936196888, 175489415, -447362404, 698531106, -379978042, -2042514804, 354641174, 1296984451, -1288815042, -742619642, -434046119, -211724251, 1806151861, -745314854, -767425261, 979020148, -781292971, -964427966, -1002182787, 457832292, -505124593, 891289950, 468911445, -614784027, -1774089328, 1190203359, -693629684 },
    { -572803019, -261203822, 580780789, 1640726479, 174864249, -383491529, 752194364, 486365223, -619205821, -1657089070, -2017079743, -1305923844, 896713532, -539380401, 504168455, -664655718, 1035522290, -33621319, -111195912, -1047240172, 749301734, 889222883, 339100921, -1076290560, 137661623, -425705532, 753837395, -1403991492, -1891584821, -314318631, 839210600, -811656428, -410082514, 184842717, 534754980, 997710225, 1656770999, 626682336, 358119291, 263628569, -1179165359, 504498842, 543341222, 270901921, 348293019, 531685750, -275460485, 329057381, -853061479, -75946735 },
    { 197399831, 41427517, 1393943242, -499912577, -818038857, -547704081, 212371553, 1108546719, 625084930, 740528130, 1737400098, -865099794, 864964311, -873983199, 272240185, 232465606, 107084822, 1070548596, 1367252533, 591633724, 1420410186, 97827890, 188729703, -337445606, 1315408863, -616942953, -644881256, -1292457337, -45587988, 1017805205, 161279808, 515146354, 557716830, 18396831, -562446579, -109443316, -1183835964, -147063238, -424862678, -548464038, -259418860, -999761547, -882140241, -1791987727, -936169199, 523792023, -944111973, -682311563, 157171258, 897127481 },
    { -311152027, -2418136036, -301905471, -1288911379, 254375310, 43757196, -317934655, 65463471, 448972101, 570841027, -485610620, -999059490, -808914773, 229194489, 193091141, -1041537708, 1010445348, 1129731304, -1532578131, -767790197, -1057350853, 640468286, -486957183, 1084290613, 531035542, 777537776, 108968043, -929373419, -696226626, 285133441, -401789016, 99907752, 1418159437, -123408207, 679668328, -26658813, 320985741, 252034197, 370147, 2009850853, -757504328, -964552505, 938280719, -400731609, -1023319223, 477798645, -554641905, -473133003, 154423580, -433034975 },
    { -821172938, -802577105, -398598692, 589714630, -177615039, -427194671, -73061773, -1188690500, 138540299, 1207650135, 297560835, -82866674, 1058657363, 944922740, -649952956, -1739993890, -154402714, -1049284305, 746187950, 803995490, 80527051, -698718415, -331491343, -1440346675, -131803026, 1255147617, -734554275, 683722231, 57306550, 147063501, -49470829, 997007204, -791726612, -1284483360, -1410204355, 1730552089, 3168100, -2173936283, -223440278, 880419481, 654376404, -232836234, 31381032, 292514146, 269280610, 1530251090, 931118607, -293435591, 232648077, 311890741 },
    { 966442548, 479578439, -315752510, -96513475, 188008334, -250572349, -35516074, -288908793, 384153395, -1470306148, -906220856, -902478598, 521964652, 587931963, -461735852, -429072970, -1565883212, -1037751010, 692757964, -581127800, -628368837, -212850791, -44137072, 177709142, 142247264, -112330961, -1474639509, -1197555887, 1591263429, 848246427, -1804217098, -881277058, -617771054, 391660201, -727003419, 408647795, 1050765042, -2072606748, 716655969, -150051580, 471200001, 85760514, 1037700337, 518491590, 265170902, -32049617, -231553500, 611685368, 636072118, 543361102 },
    { -498764326, 1456185589, 373034321, -318603050, 183281823, -382748576, -72631634, -770454981, 864403764, -463166207, 315318835, 322924219, -327077783, -900896684, -1394415276, 563562453, -164346169, 133086271, -396260289, -648928631, 201521017, -649856067, -1031973273, 139256700, -174630590, 66808190, 502654918, -1426875528, 939624453, -60414871, -66765669, 732667595, -965958937, 2298061718, -469625002, -1221958886, -326597962, -384849621, -267528595, 564277532, -397155420, -1071444003, -42216851, -400666986, -372042376, 930427321, -796838227, -228428143, 1865280038, 1667172894 },
    { -229547410, -258924393, 1153253782, 1993444579, 217733631, 1764006969, -14302136, -381277246, 967436783, 73527866, -136147143, 1314527112, -1848160203, 282013293, -590101856, -1198786971, -773306905, 224551509, -1450473492, -937602511, 909841329, 357950430, -170765350, 867139505, 424267293, -110353621, 945064418, -253757156, -543969994, -196514768, 1468930065, -205518021, 212503049, 1211845403, 653940205, -968117847, -767363095, -791925934, -111421550, -311446700, 376466808, 1464856598, -1011165387, -1507307271, 532884603, 1234132009, -100767386, 193748182, -789459657, 997166853 },
    { -610487277, -902768878, -31380412, -984645087, -2207990440, -419587161, 1544131727, -660325161, 1722651332, 1551970087, -1134852353, 811197234, 282653254, -211507366, -811501785, 627326788, 3996148, 483601351, -796305670, -827843630, -1332416661, -1387769326, -126459680, -229970805, -1409127239, -592428736, -392804017, 45704658, -88811898, -657130047, 555994512, -1132809035, 769285613, -477202867, 538791777, 485011208, -1262794253, 640888261, -199424944, -126573443, 51428676, -368209771, -1191735625, -57489193, 1057593577, 257810885, 916265066, -822476197, 878463585, -2420138210 },
    { -327322647, 28610271, 1566117104, -1475408667, 869063127, -733604384, 926743726, 213470833, -843536287, 117136530, -1719271980, -167674429, -147615974, 655262539, -1528276579, 1169065833, 91923066, 410374250, -470196208, -84093936, -1346672869, 489870662, -48157581, -36626964, -926886861, -497694442, 973461931, -1610894462, -622523869, -1464732911, 382774364, 933204331, 969612227, 800906223, 125298707, -826596922, -1288001890, 1520406956, 2225378076, 67275637, -980191427, 315297850, 773792515, -746355133, 1166851168, 261066053, -1403398451, 29412108, 898346193, -347331570 },
    { 409207512, 921226595, 712916008, 120747669, 133225347, 1331788895, 2125068405, -48417272, -385972864, -45190162, -69703942, -910788686, 351284374, -343666958, -728947763, -1622346671, 550385821, -1595876482, -690795166, -1254789755, -213433562, -232106810, 192683371, -546073248, -362467723, -205156481, 1160241340, -503964098, 1984075253, -824267879, -719413142, -3740899, -655832467, -1562353572, 352473287, 264772825, -1318185568, 475744972, -359725546, -1058315565, -49780504, -1742246531, -598819662, -503928094, 879528137, 838057713, -872164408, -329002234, 110543367, -634731918 },
    { 1215768256, -285110771, 938643230, -799300511, -1927789850, -686471973, 216494399, -1349653196, 1520195223, 1383523683, 976972613, 825792054, -516876903, 7845463, -45879338, -154218671, 392180055, -660464518, -573187408, 1011297289, -1108486428, 345205995, 287215157, -1069231026, -686036447, -100440551, 8226417, -770128464, -1307664822, 138672417, -463054239, -1397035763, 575651200, 44667812, 106198733, -176492783, 19741349, -784010661, -1087396578, -820893896, 652112814, 2090102181, 1372640328, -992084547, -734652186, 315205560, 1432823624, -650829387, 554549649, -971577082 },
    { 517294081, -176552858, -243262630, -653631218, 399741548, 959279161, -714430739, -394390031, 1726495513, -822815473, -505230732, -335987436, -1442362259, 927083265, -105766449, 235861051, -33581194, -89398815, 443177937, -664532437, -949449746, -429774786, -811399033, 766824527, 370976911, -4172598, -626807070, 40658793, -265398123, -576813761, 262521743, 587986376, -46050967, 135461239, 1335229545, 1677320097, -48668662, 1328898143, 1043507675, 54939171, -453599484, -50009820, 14643864, -383117265, 426502492, -390925046, -1140641130, 114193297, 1198750328, 679714742 },
    { 1026635489, -693425895, 540935764, 813157666, -243398886, -561636553, 508417492, 1046099587, 375323688, 391465316, -242771964, -232745440, 780394923, 1010853951, -539448518, 513350590, -283225117, -143160730, -994757452, 1232691487, -595238380, 620542288, 432220440, -803859824, 1210436214, -143258522, -534026871, 533885153, -635914693, 313324083, 1197159681, -639135634, 912839137, 996744062, -21555418, 750093315, -836241257, -57206097, -448659042, -859296224, -798008833, -834203876, 252993733, -1180857192, -788863065, 107987076, 482926849, 42235665, -261631577, -633237464 },
    { 815088506, 1159338479, -916148679, 577748639, -584066605, -1718148152, -690809585, -761161227, -768530438, 781445676, -1046890322, 276887890, 303549852, 53368633, 666808976, 931489671, -793014367, -9701170, -173802721, -1454042705, 1333211815, 757871119, -329027236, -1236375872, -59273634, 1416022498, -394972059, -395188711, -132085422, 206344752, 603617948, -655682265, 987048521, -427181680, -74980827, -328115831, 653818805, 1056743763, -714465742, -154535007, -704127506, 40512777, 54973554, 129698312, -668405574, 644884905, -151604360, -389676584, 1928802889, -1251844677 },
    { -362455916, 1933712, 959625417, 1090074288, 159955913, 594669564, -492652871, -528210767, -8776453, 790783403, 422337142, -954200054, 106817781, -463812773, 479930554, -199238467, -550685059, 1068339221, 463924779, -200061669, 999444059, 430819882, -671109397, -547232048, 652920211, 6698509, 1094231029, 156199335, -442670448, -1759364719, -1263660687, -899942194, 327753203, 236879836, -997723264, -1143543871, 8889168, 374766649, 1416166133, -403425400, -1429958983, -1018945718, -597727405, 503958934, -1444099470, 1161425151, -535347177, 531954115, 671795507, -511307799 },
    { -1002797671, -475220053, 586380677, 1592062303, -400627733, -177985585, -532482390, -81773076, 903767811, -431170145, 272888600, 620161566, -1477503180, -356727685, 843709286, -888752575, -1786544643, 1924975581, 888736673, -199272140, 22818672, 797237061, -106145104, -1761726338, 596094130, -152414132, 1692049280, -1082137406, -170476552, -391620062, -843519642, 338638699, -444768487, -174772383, 2360211853, 926344893, 932133546, 473123232, -308440990, 60686789, 540507, 1840479229, -1155511562, -314035299, 151602434, -481664503, 130846780, -467449250, -161427116, 82352773 },
    { -674562181, 815054779, 2108675075, -896151579, 844735861, -462854997, -679974149, 1100446581, -261670644, 410741807, 640179572, 1268041350, 89184557, 49889528, 971254235, -484395062, 533552409, 801725414, 1058004237, 1252151833, -846606911, 646520306, -360262337, -1753063603, 597501030, -312793587, -541482380, -1272976290, 39775014, -1753572045, 1085463954, 420739421, -1896352361, -152228751, 544648637, -1209722961, 224528044, 81125440, 922600802, 504691996, 74415753, -454976071, -988396543, 1222575504, -1118887736, 558485624, -1455426143, -254177798, -969357851, -1070016966 },
    { 643607894, -452336884, 959950689, 1521740389, -710686465, -233712256, -647257046, -168463054, 496472138, 500783587, -921904520, 981908704, 702495941, 441047015, 1463338494, 1033480497, -486447553, -801598174, -1104498501, -293718904, -548213788, -180045357, 117557172, 541404541, 1131574427, 167825146, -567003871, 1251581635, -492096916, 564498859, 482672835, -540029679, 522521633, 290940102, -800152825, 550495135, 760265917, -1144559102, 208258027, -189833134, -1244480666, -535899838, -1308550732, 80463519, -2024412837, -590773621, 241119937, 360523051, -988426311, -874943451 },
    { 1021207532, 1720749587, -129228551, 657198229, -273328140, 788246969, -20585951, -520846565, -380858676, 202103061, -758260979, -667195396, 2857822, 130817757, 1339943853, 128760179, 1905273947, 1169952029, -747935454, 85883982, 249014979, -460121715, -968171067, 4917696, 183306836, 1909376662, -253495255, 1503849796, -1862255604, 576130074, 65870974, 64225317, 815410160, -103061451, -884451261, -121625739, -992367578, 425217809, 546185040, -71950987, -494331292, 489844686, 109781513, 589977508, -367290985, -236952788, -2321582318, 878668765, -252270644, 337090097 },
    { 1463642355, 1120255696, 815721344, -614350372, -1431399773, -517889329, 172092077, -34057219, -226648606, 68691192, 316184118, 312896233, 506928698, -1028139098, 247911194, -158178322, 41507320, 1847057560, -1031799473, -176162917, -784460607, -719774037, -429318773, -1987308087, -452602623, -727627500, 96068669, -1159141290, -386758721, -38225085, 864312633, 1165459680, -896858955, -373035619, -9161635, -619580977, -680552667, 345998944, -462314472, -382318960, -769052984, -87648853, -23258610, 497411833, 392492436, -176591317, 758583613, 1146031697, 157535604, 153131805 },
    { -837121954, -300283368, -891523359, 429543847, -257484372, 98151424, -603532405, -70419215, -495442774, 61964194, 684859844, 538679498, 442861746, -1460034507, -463388381, -665824399, -801249338, -268173616, -582318024, 597699355, -837659222, -117816669, -295659753, -754036431, -953960747, -832736950, 1949105910, -39542766, 1378511002, -176010384, -291655202, 429709644, -383469503, -717551624, 464110358, -400032808, 1208842346, -563839400, -1295804383, -1104179450, 390162455, -1139849597, -1183925861, 986643561, -590342022, 522893366, -64497033, -368051584, -553859507, -476110068 },
    { -819715391, -1400595459, 76485403, 935283992, 90493010, 198936321, -188725654, -166518530, 1118839337, -20378612, -200711632, -370850678, 559234469, -223311878, 822102618, -320546283, 473632379, 478888226, 100269154, 937948091, -677304126, 660186421, -911914180, 514778146, -431992357, 735199336, 241395844, -306644016, -584446081, -567875038, -46049149, -512523314, -1197588841, 1252025811, -876544305, 296083767, -61164012, -354290765, -409351847, -276837591, -104013184, -830746211, -55324856, -634355026, 188446849, -629482643, -301078836, -1272762559, 900580753, -127914056 },
    { 324808419, 192327558, -523358930, 187553427, 677743065, -564938813, -30296236, -397244241, 1518925349, -267660320, 1533573242, 376658338, 791671667, -422171885, -248727999, -665324765, -25611116, -324084583, -606725192, -743083417, 1330240788, 2007803909, -322415031, -135851724, 151517306, -296032933, 831674263, 126038900, 1449255966, 868629852, -1321913024, -971765760, 158409618, -183776266, 944815427, -65152090, 1630916450, 160464316, 666169722, -1660647478, -1152966504, 778444576, 709848032, 728975482, 745541197, -1476191885, -377063309, -1359575998, -313669174, -1183939697 },
    { -1377318254, 255930640, 873160261, 448672037, 724804353, -88532904, 1213581959, 24274330, 893896078, 311410243, 301808812, 531419037, 246620201, 864161061, 184460346, -230943995, 254975534, -131252567, -934685139, -174722398, -1040691842, -1011801817, -1396523729, 1253409463, -562933654, 925091108, -1355560987, 455116989, 2236763568, -102830148, -210829954, 638773337, 240277263, 430373834, 309647521, 915392612, -782646633, -1172013082, 566362427, -1138824403, -1413274149, -644412227, 1020099475, -269048109, -175933304, -18012415, -1251686812, 616885122, 249071445, -448184888 },
    { 1457745286, -961318717, -688778816, -636687446, 415787344, -85462984, -364601876, 616213507, 1111886073, -1617059906, 301072825, -75576628, 64270251, -1930005503, 237476807, 1397920119, 48845138, -543280609, -1015567907, -312511003, 1878291152, 560835167, -553050223, 655326549, -957977969, -832772893, 358408219, 901556980, 712777825, -677636647, -1241845045, -521754805, 147999724, -449588966, -470172258, 284853184, -854885641, 1798306921, 449640239, -529636367, -104223728, 691333916, -349533894, -393746255, -494039099, -713479074, -1507040101, 497509595, 1272813849, 120142246 },
    { 1887827794, -1235431965, -426609159, 204831086, 1822758434, 282763630, 1092677462, -802051859, -1812627431, 559213771, 413476803, -855530021, 289002212, -1347511549, 350074789, -422291888, 34770533, 387535731, -1161701846, -30915974, 158433689, -14256007, -1111092810, 387649338, -1090577942, 51051523, -231276403, 370091576, 1177266383, 24338983, 766434366, 551426616, -1045295885, -934088281, -754479652, 467053457, 903724986, -1019755189, 638979875, 783257347, -2456458555, -1343089500, 335917203, 37465305, 619428207, -579641901, 639650794, -1634200689, 132669780, 1200744302 },
    { -485995766, 1621145963, -1058593870, 1369289315, 951171539, 78191219, 128969470, -679613569, 246166396, 431024075, 228900372, 89115289, 1172353807, -30044622, 100546200, 224582913, -5990801, 211889775, 1062348867, -2311162494, 54373633, -165088171, 836196682, -107457452, 1513413238, -751720882, 382571753, -597773599, -268635908, 302839299, -398693423, -384227912, 1063800257, -607489462, 884956956, 768895792, 1113844165, 64023725, -987963689, -627489412, 32514407, 337825270, 2469992327, 748053792, 846182228, -368330038, -1249901199, -1182404208, 122432352, 610395167 },
    { 641615396, 543500166, -935994951, -247993294, -257631334, 473855473, 405066510, 1201745722, -966004865, -1269877193, -473530766, -429124907, 1538529916, 962518624, 967444228, -28541999, -941857227, 760303539, -494766283, 576479507, -120264387, -1089745529, 11878137, 820447190, 1736610585, -197180361, 156404399, -30672850, 1906048, 534215899, 513899993, -578998332, 398653769, -611520242, -591333451, -385819410, -264078945, -953277376, 1275357806, -194827445, 176735112, 709950325, 481611738, 1636919856, -19459632, 1010565961, 12895931, -708167170, 1192468898, -1453814843 },
    { 1005147378, -890744191, 719912238, -1194374577, 107064878, -747473789, 791728063, -831705528, -1310885063, -217122133, 88878586, 464236579, -743290940, 484291087, -541274732, -515163818, -167169983, -88790182, -1231265738, 1299969377, -79069052, -605551981, -275564931, 1116061820, 436977214, 1013257265, -279892535, 474742152, 1079799774, 101882730, -510934149, 181354091, -342941551, 640821683, -182711740, -432544463, -995342077, 559718812, -1297041394, 569717496, 630838235, 966712257, -252053178, 152603444, -448152501, 551925098, 1611002395, 1184615154, 1018807599, 328680935 },
    { 265622926, -973492417, -290398310, 178341508, 1281906308, -194650114, -415459644, 8114744, -881370434, 1332876588, 20192776, 1006123012, -207743048, 1581107201, 318009065, 699186403, -1819392951, 403792033, -1260757124, 638147713, 60100849, 168284664, -61210195, -2205448926, -145173799, -837012119, -2091089131, 1117322446, 1887634119, -277296848, -917566925, 34434032, -763488832, 1046019104, -492994912, -62341008, 1389125287, 717055604, -1668378, 176212393, 109815070, 1860605409, 44918266, -764002446, -481658903, -1091914626, 480260153, -1671984479, -541271389, -365379672 },
    { 979472043, -2269092627, 299696481, 209517667, 158312866, -40159551, -416873659, -162626945, 2517554578, 1050268883, 1299831152, -1686261360, -1839845870, -1492081893, 1339950680, -323214146, 948442152, -487096355, 763070935, 1311011649, 278695309, 239161863, -166513768, 1123700680, 280724818, -1985245778, -344293395, -592755431, 221908067, -164950753, -496010563, 138151473, -21638741, -841155982, 132734495, -813072067, 500470263, -264313736, -53481759, -484157042, -257591195, 805382361, -223702894, -52069346, -654911062, 419197683, 454907006, 852299643, -209768272, 1628669478 },
    { 384449291, 457773155, 914843746, 1625092144, -486223625, -368755012, -196294279, -577037034, -516750639, 303577989, -327046552, -315091030, -55827725, 1945255661, 156629387, -425022962, 52603877, 1058379904, -362260587, 650353403, -176713708, -855679901, -1204549052, 665847350, -821972666, 32394375, -1090220038, -1094337682, -301256224, 1305060380, 1110608998, -6951081, -401141285, 152912480, -1175754803, -169006865, -272496432, -592010018, 1104271969, 726358049, 343134331, 364760338, 39140278, 197876205, -823339467, -430570083, 744858176, 633071163, -101740184, 675401727 },
    { -1280169893, 313158643, -10566460, -446542228, -1139890673, -1182144756, -241889735, 221298836, -160250292, -385988254, -657453973, 259362387, -765446808, 541432836, 1282335927, -217308051, 741632371, -302208788, 45752843, -503942839, -1204543900, 322252032, 480429459, 832309484, 711634896, 1071597870, 901081246, -58407484, 404812688, -268590409, 1593166649, 421655067, -177720317, 463325170, -50405367, 291635855, 606922763, 13345415, -29651228, -378300615, -324328370, -321545080, 986792577, -958121391, 447934006, 1623130688, -25262522, -873416617, -54320061, -222546292 },
    { -866900118, 1560810819, 212317751, 667911684, 762084965, 478230773, -530742969, 613489784, -931848200, -421726631, -1181301871, -620196117, 1547459654, -105416096, -1620317172, 836361399, 764262924, 1313977751, -293153334, -179600639, 103834553, 22101633, 1594394238, 668866265, 393255947, -630764610, 1192060273, 977074227, 192915284, -174100992, 323013527, -63720103, -309310919, 1398393099, 1587165749, -24383906, -176809038, -685915952, -1485188619, 657856164, 943040308, 1484702038, -688496106, 811468881, -827995312, -285053772, 1400813355, -581343843, 649078350, -116673297 },
    { -685928600, 1853049469, 1576100270, -746010146, 964540666, 113259097, 329712635, 641107018, -27804731, 879120802, -351539953, -1144779780, -139978141, 1297639510, 256878568, 473503322, 400914994, -539021842, -98262665, -178567765, -262877530, -618493296, -198018080, -628155424, 655070853, -536176316, -1355986653, -784751908, -81512607, 6573568, -1018556975, 1100800398, 297670740, 1727635368, -222132065, 203848165, -1813766060, -1357785326, 53237559, -699014221, 991031583, 813132877, -2354697676, 78024912, -1161797221, 975023072, 1062098212, 521337473, 665617750, 416714796 },
    { 1853236923, -737385204, -75500812, -202975722, 995829659, -898262405, 1395432888, 361252261, 988914157, 92471089, 289174914, 67797129, -548379285, 108472803, -33452516, 437236718, -987015763, 1622172873, -1398632924, 326754702, -1580994260, -1172640035, -579370249, -117192965, 230459704, 1930720769, 142658079, 690488106, 704111678, -12744742, -332198911, -603790784, -684818657, -106948734, -621967244, -31125075, 65957725, 380124203, -1489221651, -85715030, 962418021, 141581353, -1164929062, 670151367, 115916170, 1460028414, 190131287, 917062396, 565968323, 125483023 },
    { -1373041018, 301996814, 1067762499, 645520964, -184167271, 317846383, 192679522, 1261602848, 1106632718, 604554682, -1493821088, -1471643284, -1129311043, 398410028, -323869744, -341216944, 297242375, 1376821855, -1153677307, -479724465, -18789555, 308446551, 171435161, 76650267, 1131547317, -208051062, -925774874, 975909966, 281313802, 1165160418, -256635894, 546700214, 189670415, 91437360, 63222342, -1599948788, 935215108, -975879769, -33835147, 1712542221, -1118394830, 231625171, -494141416, -257842308, -261229163, -847682344, -2057473165, -360545801, 170250772, -463927112 },
    { -359393883, 1588062868, -761888423, 163874141, 257320447, 12928844, -347990039, -514670757, -925978797, -744360494, -35219914, 360843180, 1247180767, -106922650, -405361599, -107966963, 30126525, -111613133, -1453235408, 511555532, 1275243974, 763535541, -1133247076, 94283578, 81016042, -288263349, -1827335806, 221413734, -905423123, -229075990, -1286897984, -1039722673, 159519456, 506065880, -131732102, -549223650, -232586660, 606468154, 1935799316, 657249858, 595776867, 1452384480, -366932548, 380724916, -33793906, 553184500, 670467846, -982232621, -79257474, 1039413370 },
    { 101955417, 659112561, 800900114, -83011076, -92557111, 998471718, -497879984, 263770146, -411421494, 153413866, -333875133, 109651193, -1610204201, -1588136378, -212469957, -849481046, -62985276, -795697438, -67450153, -1186102515, -384023893, 981803716, 229151323, -421604911, -686360092, 1404686732, -556771759, 1093969239, 19242942, 869408176, 458486430, -493160304, 136083893, -916660939, 1467586449, 184499655, 309486170, -593175337, 400366382, 106559144, -760731935, -1474862703, -15829804, -1003521801, 726014860, -780683789, -1623570782, 842722517, -387588953, -1239391743 },
    { 1249049229, 1538178298, 897527973, -190076415, 903374468, -210393868, 357280433, -425885488, 736599094, -148066420, 297922167, -426586796, 69091140, 489415623, 320382923, -1173918859, -391330673, -1664351036, 423923902, -1634561213, -188629678, -284970378, -1329899504, -439662939, -1583964442, 1062256849, 457980050, -597700813, 577012536, 713037475, -645048587, -111080534, 100710786, -1164811470, 661166855, -476840220, 663331860, 746553872, -1165239059, 809872031, 463478667, 862423554, -328315273, -85027215, 874140292, -500908146, 644576417, -1676434902, 1508638004, 638604768 },
    { 198312424, -1380770803, -360318162, 523546005, 894708438, -42410425, -369540663, 1308310862, -254230612, -1064081005, 448672061, -1509190320, 214058596, -163415899, -602684698, 725644609, 109374375, -176518394, -601235013, 237087734, 1248252589, 766802029, 605902992, -538339162, 275621117, -807341203, -313730816, -637477738, -1670814580, -679710774, -953652975, 2124476429, -972959124, 717107127, -96192963, 1199838554, -893062908, 685231897, 1258894306, 257738720, 109917104, 1363545803, 1244458992, 716102061, 335627189, 151114540, -149723380, 289275457, -426609195, -966527434 },
    { 128842794, 1078955609, -331134545, 64381127, -1444167195, -427770636, 538313809, 1215214189, 821423806, -345576881, 1287623610, 64574925, 1064190574, -1212810431, 1508086417, 356530552, -1283981551, 96470436, 177345418, -894061747, 905713856, -344197595, -1430142638, 186578472, -462733975, -759300865, 788134438, -134726084, 372572967, -667997659, -661185291, 701206074, -563126819, -356125927, 885271985, -636080616, -50499458, 252294883, -56461635, -1346763614, 289648633, -1883534050, -179150818, -497797174, -1342673015, -184031901, -940537508, 627477691, -211294590, 1247727837 },
    { 706320162, 1169876944, -300577086, -1275585205, 376065373, -1386032734, 1000155649, 718205833, 211903550, -77733704, 210889359, -46779780, 1239642612, 684677042, 792504704, 26814293, 636215379, -1035049512, -152508373, 286658298, -930315541, -451908469, 393519515, -1210177552, -834773291, -151563251, 281188339, -928189268, -413690834, -80204414, 126801745, 221764441, 484215049, 149213644, -184640219, 106874589, -13770308, -101797596, 292743986, 706003360, -622519777, -36008411, 309135196, -149977301, 24916905, 31476521, -150845373, 684596053, 909374560, 917231274 },
    { -57153714, 534564296, -20993523, -139494324, 1691168875, -420601437, 908498390, 1453832810, 1894965700, 416546069, 61785495, -753525536, -184580412, 487707500, -2250136613, 563453386, 908573136, -305444448, -517686911, -1050551912, -849602678, 579763768, 338845740, -1334660972, 715180126, -316113053, -1286470646, -376373766, -676578334, -509806175, 215366221, 278814516, 729047014, -300721256, -539096705, -841285664, -672310603, 13326905, 1358540274, -970851828, -88825919, 875100634, 795950117, -947806193, 1086853287, -1398916789, -35054403, -948910302, -368395750, -435241602 },
    { -1000152448, 1081231528, -10707579, 212640805, 333380519, 968008243, -1025367900, -212892262, -897260284, -4458338, 168360777, -1692940846, 880031001, 1049661291, 239079508, -148643327, 159871717, 535820401, -336523723, -180530273, 4678565, 1403368791, -1839554863, 128138684, 383598845, -76696659, 368814360, -215920814, -17268847, 505201003, -620639154, 1037996134, 126153680, -472140230, -1052951436, -466730855, 934048097, 694129146, -458498025, -1061365432, -977270016, -783870455, -694792583, -2357536939, -109774130, -62344822, 1023736718, 1794501509, 26455887, -338288191 },
    { 853015973, -864323385, -861440920, 50158025, 21305767, -1122216659, -214358546, -685182714, 906738582, -811839465, 217965251, -1800836368, 236179518, -739085802, 1171132998, 13678539, -185515428, -288863016, -621272689, 855727570, -371469006, 297543937, -1595549587, 434886517, 184613769, 298849855, -401228391, -1803228463, 205808380, -523360396, 811126718, -639120467, 1862445558, 120110465, 1076137301, -548856351, -1278705062, 1073059632, 108740896, -299934785, -903114893, 244232816, 331540091, 1071454494, 484879649, 1504852327, -233205034, 4523989, 3013125978, -358626489 },
    { -749194078, 404411507, 502879131, 585343661, 809700355, -548786494, -202191869, -234749165, -1073759756, 838087967, 542438209, 244126221, -1618335600, -1093647739, 1046810587, -139329059, -506675303, 522661019, 1256558428, -1096427094, 398732657, -1058765543, -127256773, 697286337, -1054090205, 394726996, 176354402, 326120606, 883011291, -614790959, 827292131, 8993781, 717622506, -674096773, 516821690, 1114446190, 1253315644, -322000185, -681572139, -175882387, 332320378, 649941511, 786249680, 134599078, 91319766, -279316188, 650831398, -225470843, 1264256918, 798624652 },
    { -1840568790, 1400288679, -1396192373, 533269290, -809293955, 666113942, -535396505, -2700545610, -277039368, 630407683, 738504061, -894274543, -2639554447, 772547429, 800478381, -768095043, -927803575, -301648315, -114762815, -716222952, -1530481631, 1315332542, 1334863356, -827809194, -671666068, -1367586279, -682635844, -333807356, 73572653, -576748540, 635033475, 255792655, -1120880737, 439600103, -218072463, 1042446493, 334567749, -267458592, 522059573, -557566731, -892869891, -510883988, -378232824, -1258572320, 163774493, -1278133915, -716803779, 1182265167, 763131332, 1033043743 },
    { -498529958, 488201331, -162293330, 147525534, -166174674, 71606480, 1139438727, 186877013, -423241343, -92818508, 645536666, 586323425, -936107052, -719248062, -1856418676, 1232089000, 79598736, 64082182, 390662538, -1162417747, -374485903, 425559423, -132745922, -1193216887, 344852491, 1274391991, -215055666, 449122590, 2110745429, 1040534349, 111052488, -181413765, 117016664, -1596945525, 671220681, 846393399, -483489329, 806711653, -255682871, -24965582, -23060888, 846388369, -274838620, 758466357, 537737484, -35786597, 661753387, -160995315, 852337712, -145883298 },
    { -367766552, -796191948, -408012624, -1034079924, 848098564, 613928662, -647426756, -754601220, -368268010, 763473266, -763821255, 861062844, -87396852, 446067025, -295595696, 725823057, 369453975, -169930959, 335874749, 169735900, 1257029092, -806273782, 65644751, -49383465, -234500, 792002913, -555926375, -1048646276, -17159348, -466744299, -543368230, 201884320, 1479493331, -734751261, 1072449728, 963439858, -11007910, 495285719, -603196248, -17563874, 2004538973, -1058617843, -432794762, 1008231100, 603888826, 438209510, -190443232, 995556078, 43257120, -184138464 },
    { 483429713, 854353912, -666644443, 110680179, -586483227, -1543530232, -304015083, 514807387, -502148548, 983388884, 146867956, 992684389, 235458093, 1552445001, -1976698795, -863201157, -372024538, 260833901, 1249199427, -1096792177, -621921727, -223077789, 405939872, 1704754273, -1674373810, -1088719597, -185091292, 460681102, 300920506, 89139866, -630907558, -349581228, 566991891, -237101203, -731648037, -778130387, 844204943, 16242591, 1181267669, 4657630, 383517227, 1629459638, 630936129, 489869422, 921049752, 994776922, 816159292, -916396109, 714899166, 45047788 },
    { -614010564, -841723075, 764774608, 184689737, -193782276, -239007288, -146593687, -201082602, -253937907, 376732752, -376919342, -1343089251, 1866285037, 1325237768, 875886639, 206157451, -1207665555, -628784812, -353499241, -877042659, -1675201266, 249654901, 1136257678, 381813420, -194821980, 1721145752, -327831318, -560919421, 1127004147, 175838718, -1149646599, -387581685, 1601367280, 59438956, -1157016085, -614158792, -999511701, 2995654, -495951744, 818568084, -332336722, -552509190, -845328177, 721576518, -423631480, 719383249, 730510380, -339761848, 719731756, 1696729405 },
    { 898177745, 1359758350, 49032099, 344049771, 217705084, 27540970, -2683165583, 518571659, 789616206, 367257215, -399187014, 323517249, 576960192, -1118092115, 1190728875, -353557756, 1160723064, 266482272, 159772026, 222002935, 376010377, 383628411, -123028206, -781884913, 1259766420, -1125627223, 796226003, 315917573, 332497816, -462113111, 63428620, -1230815056, 1248734943, 290949842, -569370204, 294843076, -483632728, -1616144170, -379481054, -772900139, -1235410704, -864390185, 1759441043, -1040278971, -725241752, 1348199626, 1142476034, -251451640, 1595664426, 282700964 },
    { 2065761062, 810117511, 171207751, 22338751, 109866680, 891271750, 426088554, -60724678, -916031822, 610556192, -372020346, 247353933, 1280817308, 1004769198, -181926977, 1240162170, -9013709, -300199390, -1536123260, 23296256, 1196929041, -1441125334, -45970219, -483383588, -665511115, 336226614, -549812492, 36529330, -189434506, -66164039, -1561850911, -183112056, 356019861, 18645969, 99183795, -948776710, 139881523, 493992277, 1539028515, -1262220948, 16354027, -239886627, 596018158, 633952417, -414235296, -241398661, -1275870188, -768684685, -205783811, -808201858 },
    { -630500597, 1203496256, -848551675, 319275323, -233880895, 1250339630, 719014465, 100463273, 849281311, 1669099963, -655109359, 1720258228, -78861163, -772226357, 43424444, -409135642, 810084461, -653886607, 767397707, 434956370, 555874202, 145037068, -675930780, -1521062674, -422450976, -96879569, -644778504, 415711955, 578371175, 1739764723, 137338835, 492866983, -307698659, -1259222803, 46267714, -509951590, 232589704, -1576614340, -876448406, -301639207, -1079597647, -784384229, 1992468880, 1656249880, -740641613, -326098107, 736350364, -1651689967, 839176412, -1052536856 },
    { -852161809, 293913555, -1129650320, -1079365918, 528272750, -346669534, -986643561, -932063677, -412100318, 656091798, 340927629, -1543398602, 1992109540, -718791616, 61987565, -434599436, -1232660750, 415027510, -211576297, 725159619, 509841919, 268797043, -516653188, -1946636654, -47700520, -111412644, 387831348, -995544886, 164586944, 1218990066, 1150302822, 243847593, 98826610, 1343065524, 498346102, -988274, -1044184744, 123537255, -521607238, -1122486070, -814355099, 660843640, -109405614, -948782023, -49366707, 1109673210, -505607403, -337294247, 3001255596, -867357748 },
    { 832201311, 763988456, 917254802, 261364222, -1607430277, -137866494, 2142661253, -829009526, -173199502, 1391217897, -429565116, -1576768948, -1008055166, -962564265, -1071769214, 999739729, 413281631, -561487882, 176896241, 2238583614, 1337694165, -593117705, -1701680171, 1570050969, 1658591017, -1155324971, 377221757, -870519356, 480995294, 52986189, -58968653, 453762973, -663030010, 140664186, -1408264762, 1413140549, -1936016085, 1475196684, -13927741, 1554930182, -1012338131, 1122674057, -356674916, 157013350, 528127914, -1097904360, -141552163, -877941120, -893286313, 1115959546 },
    { 707794290, -690388475, 1262819283, 1368956261, 44761237, -643497756, -1320298876, -587376057, -285097688, 814526645, 235740378, 576432399, -697176104, -714281450, -866131951, 415290747, -410217109, 148818054, 674881903, -525080989, -751384371, 1133879182, -1363386917, -442040957, -632491023, -271096995, 1049024780, -177429568, 295053675, 212614979, -453271175, -144282688, 1168715732, 1053589496, 528543418, 314070023, -415764605, 234305637, -145316745, -192309889, -151392823, 548555479, -62738355, -275585370, -212122989, 529540346, 882381674, -659116477, -539904366, -987773959 },
    { -240454908, 141256628, -17088601, 168742089, -414047495, 253951452, -683353492, -27940366, -654924921, -270689331, -1939251454, -509529397, -681564061, -591849801, 75321746, -1295580022, 12832377, 870741294, -783031153, 47738552, 735644532, -766052668, -226863026, 921410494, 1434767745, 574812445, 827657492, -790158637, -799658352, 515366501, 716533019, 1805217550, 1106641587, 1688717471, -837454370, -1251843193, 1386344109, 527130746, -341384199, 295079826, 1199641486, -2039143231, -759635518, -6435877, 776537249, 777532049, -821667196, 379581417, 392987901, -1370905688 },
    { 736464642, -415225681, 1388858256, 919949833, 1479640247, -910800069, 779019109, 1119932544, -888879242, -818313198, -304901642, 1352886924, -121792068, -410821958, 285102994, -1602142297, 810544734, 16644614, 1610084308, 871650794, 376935231, -1241754938, 450948774, 271963045, 1077572790, -214462550, -120959188, 938147268, 137028208, -224936099, 302292458, 281267319, -390924682, -1852855284, 386772386, -866111161, 664532931, -31292010, -1098878056, 650879508, -230013695, -1792668443, 742679483, -1664618900, 521264972, -592870283, -583450974, 730781204, -1365788945, -419916844 },
    { 1037165769, 500922490, 1275127282, -1088362775, 1039686256, 1102523172, 180003006, -1767239366, 158729360, -364997725, 355775729, 1431374466, -505279081, -490497239, 25594722, -465277244, -554711416, -616797224, 921337621, 856999987, -971548079, 60732022, -2035521901, -502812565, -1696664899, -517287326, 219010471, -440968528, 264777350, 534345071, -119834829, -31135685, 1033698840, -781706632, -1126660654, -1614407718, -1295215308, -127197806, -1421682273, 1705291035, 360757798, 717912568, 225412442, 348637266, 518860204, 402877285, 1308428983, 212504003, -874384454, -78001533 },
    { -769803716, -347340516, -1151300197, -1009703313, 363925781, -1116005653, -1036226886, 554557314, -1068824373, -511158557, 178289103, 122309947, 996043383, -116570879, 426827168, 1478710701, 705523180, -721076322, -669086823, 466096513, 983490744, 916824444, -1338665896, 1310523303, 848865100, -1053232483, -796424033, -443992444, 722966806, -130054131, -527294456, -2477996425, 152711638, 69700581, -541917647, 168027492, 313435268, -737806957, -254746342, 594599444, 480207338, 448475819, 606879478, -36034934, -833521513, -707801831, -1194084037, -169575422, 275673509, -1237562881 },
    { -1588325922, 888906853, 910487389, 1672425466, 196408294, 313613945, -1353187015, -302482622, 308600913, 1414269583, -468587767, -559343225, 1426522553, -1358684011, -477004995, -407182964, 1904810819, -1239264928, 259618499, 348280682, 244131154, -191849913, -474918377, 213091212, 1428123676, -856695480, -43181170, 883970304, 27452130, -364866015, -620303239, 699809522, -2283351025, -728826980, 11905946, -1167534462, 765277776, -308376556, -674934522, 88202231, -186612852, -119759626, -1037539723, -195969391, 667860926, 628912601, -239030559, 67109192, -1574010668, -396492718 },
    { 891198918, -604255547, 977105398, -513067935, 168884743, -334982719, 771604691, -826517811, 1286861154, -865640420, -1186080550, 516686227, 1416378018, -509851309, 594862480, -1157055277, -1451531249, -1001925614, -555531897, -98245500, 865875523, -124779262, -367699648, -315618191, -465644750, -1130112134, -6242285, 806454172, 274964112, 1020428636, -24710879, -282985983, 1307657898, 1561762454, 75632717, -110443340, -252641580, 451923826, -455730073, -1073284366, -1105689597, 176978904, 90624839, -331286680, 244437608, -769137848, 1622538747, 539940021, 1052307631, -437156620 },
    { 306601520, 543423591, 219535842, -590748723, 639619279, -436692526, 469224592, -232434078, -909733955, -156102543, -870804994, 9353916, 73999695, 43757923, 600609509, 1363139499, 510543448, -590574567, 1362816364, 2032769644, -337305945, -43748602, 55427374, -1525285846, -171924886, -68962982, 1251701661, -564712174, -8937688, 1356739154, 249441292, -1976927493, 1242528694, -795218170, -70714776, 1223240080, 914770178, 1059178238, 1322162765, -490807939, 1534695893, -635804445, -123440547, -157455403, -1196626126, -801086659, 323486779, -99135942, 25727688, 39751921 },
    { -1157413886, -526757812, 231214460, 1403717705, -283731670, -525303926, 784986576, 574205505, -28722288, -1041537842, -19912638, -844413212, 741116547, -1209123716, 697054129, -570627921, 692747777, -1228796508, -111077656, -502631627, -1723843339, 174160583, -407918725, -392144062, -94311231, -733393934, -330233429, 609900798, 478470841, 722712652, 458294663, 584917886, -318753780, 1042224704, 86798291, -280358180, 918245782, 375038709, 192332949, -1656791414, 555651694, -531482306, 466351773, -1181258318, 548349501, 347674293, 42942363, 224051437, 490056650, 293123249 },
    { 478905290, -496991501, -272561921, -844737788, 88795635, -673689844, 591849233, 876404112, 1611505442, 781023624, 621607078, -195989635, -327595327, -702063636, 22295502, -115098193, 1346842045, 374785292, -250236074, 282415174, -1393905961, -350551323, -732876431, 452939161, -418972199, 93771862, 179217655, 249550881, 83537784, 450305079, 1967139828, -1237162806, 721889523, -18198272, 1086462660, 468346491, -1313829434, 909460789, 438268584, 101003440, 417569373, 358870876, 1034241274, 1361378776, -1213367305, 855109149, 647825367, -373588051, 10463123, 384168026 },
    { 614866554, 97219798, -534486925, 83249619, 808588962, -1297491513, 403240264, -475730714, -474160224, -801621737, 105542259, 308807218, 1416460278, 288883749, -1329304604, 687239804, -254064634, -1200963725, -1090186502, 684832688, -643637620, 1548073755, 240517081, 112023030, -86773366, 1101323288, 330919674, -4632443, -975705977, 231264901, 1411568169, -1370649461, -578749816, 857358868, 994008836, 51770910, 879708148, -488586870, -500290031, 306194759, -1257984471, -36343879, -442134812, 58821655, -65092112, -819681750, -296508563, -576829913, 229120329, -1414010839 },
};

const q32_32 B2[70] = {
    3130459, -979136, 981361, 3974852, 2576180, -134140, 1255708, -225592, 266891, -1213352,
    378314, -1590813, -2023808, 170857, 112182, 3531872, -85239, 460002, 228029, 159819,
    1012683, 1463885, -111594, -3738952, -853728, -139059, 445146, -123090, -39715, 353805,
    -112878, -859728, 6340035, 4403595, -1524556, -1130355, 2824563, -946087, -288498, -120156,
    3092465, 74778, -270983, 92316, 255157, 338201, 5586742, -2155669, -2071668, -499878,
    -2635225, -337902, 229621, -272851, 3511759, -1592328, -369700, -2827883, 118116, -445730,
    -483856, 221569, -37153, 174461, 2161419, 1626793, 2104843, 85177, -1469449, -1901247
};

const q32_32 W3[11][70] = {
    { -510676081, -232566292, 621647464, -937880783, -10394112, -845151043, -502918152, -606251830, 157191970, -636525086, -42001478, 52362969, 60155904, -1369340322, -286255312, 330786781, 208242120, 642146966, -647990585, 196847635, -727110417, -423629601, 1875235791, 464922648, -194174683, 164848705, 109387982, 632161876, 593617430, -385361373, -1126189595, 890249915, 743541176, 26663077, -695903215, -1169899612, 186718797, 19309222, -432589416, 271895641, -23662091, 459751135, -623599840, 524438018, 127835694, -598716458, 1065723101, -312349930, 478498247, 371438626, -211554907, -26221133, -123507105, 949240116, 760521491, 417401263, 535825077, 805533894, -675422165, -292059477, 34415887, -642892258, -277617118, 920424138, -617936578, 1714616809, -595402288, -665856478, 365555696, -175857918 },
    { -136206336, 392695506, -802024176, 520386917, -213286199, 246480857, -993454266, -881386447, 78838910, 659267495, -620546135, 510312374, -122943836, 526824193, 1187102665, -335532073, -390070817, -764922747, -1267512546, 928408238, -948456469, -43756612, 541180092, -147514258, -1311398968, -170980443, -345278105, 373180320, -697622939, -1228356347, -1236286577, -198926100, 325465571, 228871050, 447950103, -1233551102, -1089355940, -392648148, 150939848, 802851996, 553714538, -693323076, -239548465, 340824892, -268253757, -268776552, -591181463, 106723234, 244330266, 1353059588, -198015676, 933849499, -67890938, 1489836946, 956355016, 444308191, -847999588, -254730775, -586077327, -697924557, -591723549, 88353056, 884602736, -840010779, 1881640997, -1248465319, 885589850, -7115363, 290675519, 301718080 },
    { 564752832, 53495362, -48564499, -527492373, -466337632, 315563508, -199120327, 950937963, -843034441, -954505414, -1383162593, -726632215, 461746842, 700011920, -254605496, 381415136, -265886441, 54238010, 826454617, 319730301, -298276848, -1035058082, -1386235629, 389619145, -376658582, -522521468, -1285069205, -412272074, -993121163, -259958845, -1032238504, 963488478, -119484951, 479820281, 731924267, 856565730, 31521245, -756726575, 181001733, -603380274, -1434512902, -205619275, -447038700, -927629677, 233200831, -54228991, 374281420, -71422524, -31614816, 18798539, 518215580, -458295609, 599706803, -639499446, 884539975, -439656612, 857882944, 74244061, 652076159, 1179750403, 678561812, 847071841, 208573085, 268716423, -1732774388, -1081994097, -1628828550, -1611318424, -578510033, 1152326074 },
    { -227105799, 485461664, 770279783, -57997429, -933858934, 1201102917, -453314099, -415697853, -766094608, -394095662, -1127770564, -93184724, 491879280, 402260324, -311863827, 583226312, 887078082, 331622221, 947918550, 518649564, -433881892, 709377405, 1304557977, 937857219, 588423705, 641671378, 674264232, 188116072, 452345757, 1188473466, 454226637, -295908563, -1512653204, -627220447, -317136205, 449242156, 145259531, 761981499, 1482940085, 112379861, 258407046, 95536639, -592027024, 1305655905, -1674520379, 664009021, 128528917, -686752844, 674112814, 36588020, 198703218, -384276002, -1365945921, -240073048, -871817253, -942107125, 816099073, 183440138, 688596937, -316876687, 1513144070, 572421093, 63359496, -477022285, -1172826761, -1796513610, 35212385, -1364575751, 1624117396, 1405396204 },
    { -64402727, -657078756, -566895799, 1165546726, 81110612, -1110698756, -215281402, -361381060, 696248167, 185034230, 358343991, 491153769, -546821, -10281773, -347224462, 807868263, -77887571, -356771939, 713014165, 74445125, -642797182, -274343344, 496103789, 359866191, 282042348, -373203484, -1264482793, 348878852, 1231214354, 215109090, -1092846047, -478681795, -577169463, -67396455, 603128081, 178143123, -256334414, -1154688529, -303314132, -667129960, 1279211295, -285324370, -1813171934, -756947763, -78627511, -885835296, 596999060, 41396160, -444365596, -874704783, -179191252, -176203782, 211378050, -1545451266, -589226862, -505046204, -645936463, -557275586, -191741660, -106488327, -128250392, 684106379, 820461393, -738009938, 802303344, -703926322, 18887995, 894904184, -639490156, 176142995 },
    { 573278385, -1959571759, -832987064, -15559121, 22870944, 1537222678, -164563685, 1005782056, -455919643, -785118768, -414021767, -413756098, 968185682, 1788884283, -47533087, 1928539001, -515851716, -857138862, 336240029, 1592389807, 903365913, 711053769, -296950889, -291446235, -1083086411, 396655720, 717337977, -718179684, 414302702, 403356716, 634266829, 81027767, -507130989, -448047666, -1210660481, 320298713, -1057483886, -187032724, 504379005, -532342161, 235016532, -699487452, 100094476, -149975104, -31127299, 359598271, -119207906, 235673414, 1283895109, -715339716, 380585777, 363853624, -137282867, -667946349, 1112008027, 434867578, 90504345, 70980415, 795043322, 168166595, 540288946, -1070112883, 1136298717, -728815646, 162309504, -264242625, 286322988, 690173845, 1188271906, -458424988 },
    { 1866936839, -492132359, 1422236555, -1241513990, 306765848, -819897107, 666174721, -252416999, -418770504, -512114860, -218272513, -494041633, 206447081, 402628033, -661792871, -208434154, -896471949, -1310692077, -179119400, 776248158, -1595620189, 801968761, -975961153, 17049357, 80314778, -354381701, -538132328, -1341676643, -2390728166, 636372953, -325433868, -1496647057, -285292981, -1048202460, -270028360, -110177182, -411086004, -81698518, -72864314, 385806793, -320759066, 1092651510, -981257639, -131733990, -421776463, -500832924, 1610746053, 886662040, -383447892, 1063814507, -450782189, -1075717984, 958718993, 58543207, -395684731, 561471220, 275450659, 85934626, 920103346, 19937202, 669658791, 616505683, 589623357, -351293149, 421990887, -1196192453, -247487012, 147007657, -538617988, -825430492 },
    { 4212483, 675541504, -660519267, -911893709, -1443147273, -333348301, -232950017, 1502515371, 10880250, 1466207105, -209962647, 854956407, 317399117, -168219147, -648912883, -1544237334, -25456567, -46353474, -213403453, 330151526, -543573218, -107595820, -160983385, 856342025, 44968345, -350837163, -937408172, 1429083086, -125744852, -206250325, 514638015, -524397477, -1057169027, -788621416, 321149864, -208331219, 270816678, 777458979, 1772021034, -265153300, -1323201971, 775092867, 1156933698, 72176604, 284729951, -651388453, -1136065499, 616236009, 1366914186, 1733666034, 326477817, -193149367, -440052080, 630928231, -1608505721, 470038045, -438432237, 902612357, 180658047, 326778282, 222175096, -50496076, -64166953, -223423809, -133120690, -281920090, -230257633, -340119184, 849776928, 866504455 },
    { 321680745, -259410309, -142049622, -131556297, 288124689, -553043585, -1190180391, 58665869, -360968164, -450830205, -60806883, 650941542, -293611831, -1230023058, 618933203, -1182339041, -259506572, 391275987, 1518325038, 586655221, 501833916, -114784188, 759489659, -258816218, -29824730, -302595946, -720384361, 221551390, 233086814, 658798810, -61494401, -445709816, -608843991, 680950149, 33649320, 751497668, -369560537, 1610022382, 63468775, -1129323658, 645383463, -582304989, -647834734, -641377971, -989072790, 698208442, -916803259, 576734970, -1279432898, -210404546, -1110429277, -460494762, -371955793, -811111290, -332921542, 585478327, -17654378, -49942676, -418991770, 372576281, -1030163078, 460723679, 316434107, 261434700, -600986073, 354624825, -307202696, 569881274, -972019680, 546792406 },
    { -56200223, -127236781, -927791036, 1233554974, -668771939, -808533135, -488931056, -152137310, 605507556, -670105087, 547903402, 710858616, -474541238, 1222672647, -549647455, 151370238, 931181141, -853199643, 243018740, -133360537, 1409946191, 1067891797, -1969732718, 535213265, -708774063, 94105531, -118817374, -1253712526, 1112785946, 248203458, 213654183, -623133392, 319944960, 1372361653, -457404956, -91285862, 776095523, 92559736, 10540843, -780850314, 730061037, -1304043816, -230656459, 64714798, 972776524, 1026049310, 342289867, -427820297, 112957796, -81627915, -220353980, -597131494, -206363742, 788245520, 181276025, -856660783, 160038661, -3320915, 544971397, 235640117, 19431140, 137667964, 644027195, -463420665, -618675364, -715403806, 268626092, 310444963, 136521952, -176040967 },
    { 1378212772, -471692, 377756278, 1446080924, 97629354, -201360220, 181465416, 751147510, -305403244, 411273110, 1315473993, -381360851, -71420597, 273017215, 430091940, -546246937, -468803133, 991018787, 1206358038, 309342254, -38679400, -31605295, 40186033, -791271325, 437639314, -870149603, -1512220311, 290402269, -649012916, 797717777, -837629683, -930720523, 1313815802, 347699155, 347374434, 637681951, 1279658336, 859172752, -136685229, -1002249369, -561508709, 441166947, 1040678861, -168942375, -249427444, 121997921, 864120098, -361936958, -1076634982, -683437653, -620100595, -654970906, -130984960, -774704718, -224393871, -421686556, -1133485934, -539122618, 243671035, -359269912, -603591500, 723829137, -6064052, 185801999, 180117132, 765121925, 594012880, -404196393, -452834438, 611699366 },
};

const q32_32 B3[11] = {
    4096916, 3073640, -2380648, -1054907, -3632798, -119551, 1682041, -15252676, -3339637, 4584174,
    12343445
};

