#include "nn_policy.h"

const q32_32 W1[50][8] = {
    { -1297139266, 3997009658, -246405975, 229305740, -1897678027, 411024239, -404823866, -4010648763 },
    { -2137359590, -3026362442, -431267333, -1658884996, -2211248658, 2517598563, -22815844, -1532781838 },
    { -2979396302, 1622407369, -1799868184, -746406506, 2189053491, -2004932755, 2039734342, -2645555138 },
    { 2900202084, -98355008, -1236199881, 2056122365, -2574526877, 4945624232, -3386689600, 590754457 },
    { -4514272382, 2303801605, 40632109, 1467530561, -1482756043, 4508346222, 2716196692, 4066301195 },
    { -804222311, 2052208259, 1297005289, 572343198, -636623375, 985275930, 2924779988, -978886808 },
    { -2397710466, 4153498294, -1178258001, -3264871588, 1299812065, 2432817138, -522957308, 1879131432 },
    { -1834224567, -1505218729, -2359954297, -1433250291, -1147349283, -651231368, 530527528, -703435513 },
    { 480782523, -770740466, -2702819648, -1443407044, -1854802906, -2121376807, -1355653218, 1890275362 },
    { 789291974, 1758658549, 661765367, 3250032290, 55864694, 2303961965, 419974839, -105135932 },
    { 774772031, 2477286594, -1028879412, -990808146, 1681691390, 1430555025, 3656004208, -1131992923 },
    { 1833581365, 4282003925, -565795826, -740980270, 1297985713, 1969058020, -2923911254, 4197221637 },
    { -1486767730, 3317993601, -2894072983, -964635286, -4544866788, -592991566, -3258646470, -261845522 },
    { 480800059, -434702178, -592421864, -1796542640, -2629559209, 300246040, 420940552, 1318415246 },
    { 754026714, -2024512995, -1108741719, 598372550, 628856160, -3028406058, 407328429, -1906667788 },
    { -1617608238, -234053422, -3463934557, -4164920544, 2069230107, -755151351, 376267660, -4215187873 },
    { -213289304, 2860499855, -3784672054, -1850216315, 472040760, 1178831450, -2795581620, 628685492 },
    { 38271198, -5545219, 2851442484, -551022952, 1048439790, 1124520633, -1766195845, 979608863 },
    { 3621211184, 825909200, -653634137, 2250475990, -543194760, -1476936096, 2215100328, -2585781132 },
    { 350912663, -488644952, -31358896, -350510187, -1412354780, 2754065835, -1938502273, -559541574 },
    { -2939222692, 2141772670, 139091438, 5328075802, -916723493, 2356834962, 705317098, -384401120 },
    { 2241609652, 96386656, -1501038739, 1440156248, -3036868053, 534785787, -1369910376, 4008109240 },
    { -317072038, -1342485526, -1349350343, 416925857, 1529208303, 2039798169, -341008218, -3079460 },
    { -1877260830, -1089785579, -2383781077, 1166692000, -2105446551, -2707232078, 182578232, 3876823691 },
    { 728170940, 1137881427, 1690995795, -298853702, -568913758, 160304288, 777602268, 929172080 },
    { -650646592, 4719314026, -3090802902, -1053758976, -4001482476, 253775979, -2168691505, 1716527158 },
    { -678247023, 2186283509, -717372944, 1479144917, 2495648311, -1965147868, 3421998182, -3650768598 },
    { 306556688, 1953738240, -1062214033, 839052179, 793673727, 3976785597, -946164785, -896610208 },
    { -3040347368, -3082757476, -789584932, -219187074, 3720701998, -846784634, -2003460711, -166890114 },
    { -103498234, 1097827859, 964581850, 3781313382, 2615792809, 956770361, -1365292226, 4546871505 },
    { -1851343412, -2200744519, -657504027, -1790256969, -3654101788, 1717516122, 991682514, -2178182883 },
    { 1767500004, 639317957, 1272268403, 302825984, 59292507, 2398944176, 1503840074, -1803841608 },
    { 1301252839, 62592252, 1308656124, 1542605018, -939607119, 1085150972, -2249164907, 273570701 },
    { -1739601131, -3950978931, -2286783234, 2667233273, -973014017, -2964421977, -4392494640, -1030849505 },
    { 3038141801, -5355066344, 876345127, -1024719127, 1260604217, -2234846614, 1951793483, -1957892880 },
    { -3094497873, 4652231484, 1810154786, -334892207, 375658534, -3386252743, -3060769032, 920464300 },
    { -3357778151, -539257601, -261911051, 1238758957, 2047571106, -1544825296, 2695897282, -2830038816 },
    { -2852718358, -1350652171, 3395605910, -300082324, 3115919371, -2284321022, 4217760954, -817124048 },
    { -1325609350, -292436014, -2916637301, -1940927356, 2137834995, -1845129347, -1362547602, 3268363875 },
    { 40134617, 539283616, -238045891, 1122129915, 468817887, 2668732124, 534008227, 2495056885 },
    { -2243337915, 4741496306, -960529344, 934647115, -3171735614, -3984958009, 905948110, -2949961074 },
    { -842959172, 729734737, -721376913, 1794240906, 1684726110, 786798516, -952949281, -1977126318 },
    { 1696211632, 131583098, -1095092561, 969948134, 192963434, -1501550438, -1758000397, 399525259 },
    { -260786607, -1474305801, 2369227528, -3272821651, 889818968, 2374280591, -1679839271, 3438084108 },
    { 5638977113, 198041919, -4158153482, 84761097, 2146772530, -839665781, -6690368357, -4591165607 },
    { -811924532, 2009862836, 78387682, -508368481, -1266431547, -4405377630, 3365288796, 2016651339 },
    { -396933307, 952181614, 2969165568, -672472448, 3252208839, 2196034523, -790705633, -2970829881 },
    { 399116532, 2295864690, -2462675597, -2178291545, 2562319796, 2177978807, 2957568292, 2688692277 },
    { -1927281368, 1651214537, 4614699110, -854840514, -2750978877, 1134858079, 308376729, 808569714 },
    { 4039303580, -2720407387, -2461590521, 2474777909, 4140668424, 313886106, 1242881140, 1108158838 },
};

const q32_32 B1[50] = {
    0, 98, 0, 0, 1993, -1246, 15, 0, -592, 0,
    0, 4136, 0, -4130, 240, 0, -501, 3367, -3474, -2360,
    -56, 0, 1, 0, 359, 0, 0, 305, -1050, 0,
    0, 0, -3046, 0, 270, -1275, 0, 0, -58, 4,
    2, -2121, -550, 26, 0, 67, 2501, 0, -586, -1
};

const q32_32 W2[70][50] = {
    { -186502658, 892342027, 408704186, -376810580, -1311431078, -790057798, -98465995, -155476767, 836218395, 1243505552, -1463900813, 870662852, 718775384, -878665454, -702735447, -1125872588, 325036652, 479473385, 895794881, 532245450, -471442759, -527954091, 87313559, 375561755, -950972280, 2285797824, -1187770709, -884792875, -634841718, 1101562292, -376923166, 20086163, 603677220, -483222529, 1703519278, 24898424, 47566061, -416960956, -158591144, 616112442, -512879147, -891555341, 174260094, 673691231, -615616868, 1026679374, -468157644, 779815175, 505113999, 1241043015 },
    { 439793286, 558746998, 885968102, -1238155495, -295188498, -935000461, -1063911052, 1046124698, 1021188745, -434750484, -886183530, 398727890, 549506684, 249284154, -1494172356, 511788078, 544100903, -481339421, -582268774, 1226002182, 503095274, 928915216, 215906325, -556536532, 1248842057, -1000754503, -438998642, -1027851128, 649193845, -964289004, 1089708131, 469001334, -321349964, 885087613, -1457969778, -1492910126, 81978224, 1454884326, -183141507, -1067592532, 373439190, -512696730, -218405077, -464346268, -1475167320, 121392080, 245471512, -584822077, -585641392, -248529679 },
    { -2010430438, 1099517488, -1902521409, -196509098, 680089026, -1884183899, 119280584, 20637134, 1282031, 994535063, 355439727, 20338162, -780675215, -349835791, -534584431, -41949720, 587285861, 50464604, -341640949, -276158913, 744518492, 54483828, 264897134, -327030185, -1987504655, 1733519347, -977137133, 617137853, 1227405740, -1573522324, 526059707, -21911564, 1052488361, 1181544049, 251973676, 883541129, 761008157, 732454867, 497539455, -759450779, -416890970, 589464927, -293005267, 1867686629, -512354970, -1195465065, 146946210, -408313940, -338156806, 143548619 },
    { 1302676918, -1440270383, 343849784, 937710192, 767430486, 1010578067, 623385939, -453459346, -144040099, -568330889, -426637882, -359603755, -76112984, -30525285, -1448697899, -967965880, -388864235, -637265606, 299231212, -1116049107, 80095437, 180217306, -5263540, -1321387841, -1967571343, -364387515, 1011551125, -548886267, 15564429, 78355024, -475267798, -795742242, 735635390, 859593870, -908718726, -754534985, -1243076377, -78438073, -190392785, 1238767282, 931349083, -536042910, 628848615, 201786113, 407506569, -627901900, 385292598, 350054867, 407899217, 476679032 },
    { 65328609, 959807412, -1657011220, -467655245, -1024095952, 250415743, -1595591999, -1107968140, -21041701, 487458765, -268906442, 111225737, -144436712, 54802602, -18918457, -1217054396, 50760924, 619727789, 260681918, -91244296, -143457497, -1466892213, 983989350, -306648295, -644688631, 208833029, 1022171893, -1836813630, -189710292, 193991487, 2073635494, -300585290, -865097854, -156567363, -706072693, -537902702, 371703142, 258840155, -588440171, 506665276, -802715879, -1005346676, -1058014783, -420875864, -425123811, 761111697, -29480054, -1962012614, -783758712, -919491745 },
    { -345835960, -1017050364, 230955515, -1085719493, -933668281, 86356115, -947542419, 476282250, 567268010, -419355177, -19082367, 347341490, -570561455, 2116144417, 939703342, 827625306, 243546234, -128815698, -294165263, -867412702, -1291892733, -564934672, 463707924, 649778504, 530140101, 214465817, -274607136, -1789058588, -591905632, 636324553, 75154225, -1169924872, -968085420, -784014084, -1089294504, -128964349, 333568556, 419130180, 518545022, -5107715, 384842522, 644624773, -1666744617, 578439667, 423843429, -560703004, -996418453, 2431514874, -798333832, -948330731 },
    { -556901035, 490065360, 419959582, 1632666623, -1236005123, 460755306, -390881173, 1571067774, 453205472, -635276956, 783121885, 1436899126, 179692640, 1006082509, 1384601517, -864235375, -154569785, 672548731, 696884186, 636940861, 1054036602, 523738322, 1433015408, -590771669, 1468877974, -262102893, 1498752571, -62398319, -381350692, -921316694, 744098015, -920368528, -940043409, -2435324321, -314315497, 628308232, 792223571, -1293989662, -413941824, -160381440, 1870231928, -608920231, -470107644, 209605832, 1146868163, -369236791, 68284947, 196848605, -1629156266, -436555895 },
    { -956472249, 971947750, -714144927, 361821854, -751042917, -732739612, 459093874, 322831611, 1088957871, -178054153, 166111680, 247875159, 994714810, 1595735664, 1503545579, -1331392376, -577745426, -196274700, 1127186460, 1023425624, -1473978537, 1143108984, 1419334543, -74748079, -1197217595, -471848442, 1483072459, 671211923, -482280087, 377787721, 2399256481, 144768387, 447371700, -1581205523, 764811270, -767949357, -1418485163, -1020798170, 180305093, -580973204, 669606543, -601651405, -31543853, -731242621, 956698715, 745643462, -725548362, -339215342, 385832353, -654520690 },
    { -399665604, 127668620, 38751267, 1769971034, -571331988, 1172186886, -107600916, 208945796, 2084960077, -603385402, 78787222, -224785745, -46968928, -417974772, 400730191, -240285638, -581341322, -207224177, -635942266, 381408302, 239831867, 887264857, -2684317813, 423815, -144858333, 364061820, 621331153, -889320455, -569450650, 999415712, 73769283, 678061997, -45626548, -30191757, 215804079, -2120673, 1597943213, -472211378, 1029948564, -1543862006, 1579630435, 385682984, -1136185868, 1229916997, 1020445425, -1407203824, 1077535909, -550025618, 222707076, -412763170 },
    { 26785485, 443511570, -369093873, -386281218, -941913725, 1555566097, -716302709, -19319320, -1433784068, 861254643, -882179327, -493848330, 1332881361, 606869918, -34431376, 428457066, -173836443, 920053636, 140635845, -1294738781, -743966629, -527088482, 1808661103, 552503063, -1061566453, -14647480, 1194871365, 369366946, -925935849, 804267532, -673084064, -1102009981, -1284181057, -547505148, 131473599, -1374972590, 672439048, 123638139, 469930004, -274040993, 389366383, 289671275, -361971568, -1308793492, 8149450, 390575772, 143440288, -965920132, -588080942, -511264080 },
    { -191936476, -589034370, 544340945, 1175918802, -1098169843, -322583604, 507903747, -317170034, 605322978, 53872634, -1477339646, -926568336, 108778755, 1397687378, 840269196, 1291280796, 1606983109, 60677883, -1150053741, -753969749, 31692266, 121843948, -784725477, -649213782, 991168348, -836944669, 413225630, -638874751, 1305082334, 334198273, 649007318, -2035866489, 2010996944, -157456224, -209695150, -599673711, 88627185, 128562087, 802363417, 162319602, -2005653452, 21831242, 243049987, -294120168, 1336304437, -898846876, 445931846, -1250100058, 2391136670, -874931520 },
    { -531736996, -803754316, 419337461, 588250869, 620001884, -1036305924, -112767309, -503586763, -501954155, -246478913, -114949242, -130697115, -979205566, -398087946, 1829980711, 402643982, 105992100, -112727139, -2072925289, -810650055, 127305944, 626459109, 324842208, 2027479198, 401577780, -285297534, 239464976, 46613171, -34551361, -736858572, 1167298941, -38424715, 1381089621, -100205349, 694547348, 985110862, -1518349706, -113861736, -14087532, -505827912, 872769918, 206784656, -196616520, 762600202, -1546813530, 683480641, 498925950, -1198241901, 1047630947, -162080240 },
    { -72160403, -522324795, -578947879, -694374244, -843163347, 929843339, -81981224, -509773332, -600519241, 241967679, -1300597326, 861360763, -1120052983, 307974529, 230325351, 1599886685, 641353594, -42299896, 492172604, -891606572, -68677762, -1488678424, -189318522, -64082296, 524629921, 2531839019, 1353630429, 1575433908, 260381512, -2752104868, -111612870, 1147671888, 617662310, 1353856637, 147391830, 1323551826, -448855216, 819997004, -841870927, 321451259, 809595413, -410817536, -58223020, -964381635, -178745919, 972684297, -413476351, -489239568, 989001415, -236433984 },
    { -200520821, 1429236181, 10176350, 1450032329, 1539742261, -458864585, 830308605, 281191579, -545959625, -569957577, 124971000, 14429325, 662734692, -667239987, -301381889, 463981920, -313965161, 503336264, -991312243, -339041158, 1214670018, 336217611, 2056849024, -394005474, -546077315, 64009209, -826998547, -326026479, 532660819, -390169361, 1234153423, -358017652, 223875173, -1385535505, -1230758589, 2076181371, -486299739, 988890198, 1437319729, -777080967, 268847942, -736851150, -737388227, 1362387305, -238177090, 1141073750, -1927278304, 27565508, -683684232, 1704677813 },
    { 410719488, -362955202, 1141395132, -816841379, 782412183, -562266931, 861865204, -472665645, -1021264745, 498913156, 1413085255, 1265686135, -1485179178, -288209901, -130781001, 1481170953, 748674895, 427811326, 734951559, 878423227, -829121752, 47877445, -241364675, -1496566968, 200753747, -751979346, -685537630, -41766400, 164479052, 918211580, 854687861, 2382258781, 800747461, 967064194, 1267235371, -434480066, -791147285, -69510761, -234668783, 441680662, -1274423126, 1099285309, -909915342, -1044096943, -669742553, -940124667, -532026314, 1173127825, 2365994810, 328230317 },
    { -668579008, 988571457, 708390975, 911619847, 67748820, -949867108, -1176510365, 463719184, 109300133, -339994403, -730677966, 172123383, 322508550, -1463213203, 1448456547, 1335793159, 270112852, 10810358, 980908710, -138484753, -679571580, -580538325, 241452835, 850417998, -803921089, -1223651755, -311661654, 785156463, -957339658, 1157134030, 736079755, 592663203, -427037541, -347371233, 1057277966, 406561998, -59003809, -486244526, -1063641594, 761442926, 194154592, 877549537, 880495330, 1576344531, 1594040569, -240809493, -835317638, -631333018, -34633803, 837224848 },
    { 112235314, -383937818, -797169632, -581179060, 293552426, 1586186287, 13469621, -722077584, -1129465043, -797870313, 1502910303, -773061567, 267667934, -37617562, -135780453, 623798386, 1140163061, 424569108, 139595549, -430648451, 557800558, 170133195, 400620930, -538320666, 883210274, -1767962203, 1289674830, -445911027, 19492283, 1896978207, 772615122, 455827364, -1387056284, 1618979514, -1698987649, -1576808947, -1189818317, -170458563, 581694616, 1895111220, 47242182, -225326867, -23246389, -1871051075, -348715920, -86229714, -136013863, 825813284, -360493491, -326228419 },
    { 441928173, -464259398, -1046381905, -1008575894, 1081163545, -85284899, -764624250, 164663984, -734488348, 515430134, -167564484, -6093591, 1251150673, -212878330, 440345112, -392606738, -427499304, -497462002, -2144383131, -551590001, -585150108, 266694859, 782139598, 410323621, 280818047, -197287045, 249250758, -165332814, 114705087, -1024799091, 523199083, 134939550, -171922029, -387013455, 1397770139, -199795594, -1385344201, -223903452, 1776071651, -693489426, -790509368, -1399021606, -320677595, -304584132, 897471652, -1099487077, 286945531, 878692906, -655365327, 607492524 },
    { -4745750, 301763156, -755471662, -478941078, -2439413383, -431258902, -410617202, 940834419, -1952042490, 155851108, -177292785, 109886042, 783354048, 529151558, -169329168, 215313344, 440007204, -625746769, -593941995, 121499993, 419409031, -566882280, 190862549, -381439622, -1988076873, -496683988, -1421428403, 211132663, -1728395978, -785796465, -437001095, -862588960, -472170443, -646377629, 285065864, 260069120, -345461738, -2366500818, 74481126, 375407875, -1111626689, -743262666, -300553754, -356328364, 333125681, 956675201, 1073475028, -1752931223, -804109224, 1167365430 },
    { -281423943, -776236335, 1600148653, 636709186, -258401900, 33401792, -51485285, 699367306, -1871514598, -615956774, -284331485, -230993828, 101963302, -236928487, 638672038, -1091930295, -1841470645, -313773427, -560525411, -474985273, -1893143851, -176413760, -287955189, -125197725, 520854690, -76610183, -52899333, -2522770283, 186092678, -248600904, -328466044, 594184419, -1029469173, -98187310, 605213430, -1132970296, 1167879548, 538913157, 1077802884, -1208291239, -655368451, -103219862, -858494322, -1408454136, 210312162, 914253723, -118988219, 625140994, 98848566, 977820678 },
    { -137527624, -81854360, -1730131130, 178617533, 656679460, 594912124, 670390857, 373815929, -1534001769, 200107787, -1687542122, 1021002829, 1106772030, -375503568, 1250871528, -145983891, 61261421, 796266298, 948030861, -550046597, -822541184, -1332974336, -1043103815, -160597214, 291303781, -171703595, 370416240, -1942657416, 316995339, -269435091, 442234313, 43044470, -318289658, 929002305, -750177051, 210857239, 261243946, 257545570, -1333811629, -635873790, -13145375, -482898163, 942080710, 534890112, 1164965179, 962162077, 181975726, -695131069, 1090787190, 126465628 },
    { -239493132, -379661574, -1983203642, 1205609339, 378603731, -380128683, 7703655, -272370551, -483153531, -1010188050, 635228959, -448621633, -254537141, -514181106, 855193262, 69302536, 705606771, 770675426, 907269415, 142965291, -426671655, 32476892, 635865463, -858756683, 893573608, -379436427, 1035974494, 15717501, 275612005, 412676666, 443413757, 849226214, 906692679, -182855637, -941325960, -78442041, 50823568, -747441764, 592738412, 1834929141, -141748932, -404120822, -880303885, 38777033, -586694223, 508882537, -754733173, -345050967, 908768832, -305632841 },
    { 1574085742, 556981164, -1032051016, 501885956, -179258575, -183234491, -1133840367, 444819143, -717640886, 1014181862, -291983043, 1048418177, 266150841, -497557571, -1924379469, 549722540, -971106902, 212743860, 296515245, -84112418, 287843241, -1321060935, -513217215, 472233305, 283219034, 1067036238, 549315681, 535893179, 927042982, 182056183, -770232087, -580145899, -1085025857, 326099847, 1328993236, 314560275, 1130231872, 599705178, 936031107, 1288466562, -77192080, -874361696, -705389344, -789377917, 1355446930, 652532317, -1382512595, 773408037, -4270791, -1282269895 },
    { -570220637, -370630886, 579983511, -1763676, 168956345, -901730714, -589394086, -553787208, -60076768, 278486260, -54260186, 1515445584, 614433054, -510661331, -1826081349, -1268738690, 145066697, -663878843, -276911540, -64599808, -48639803, -630482569, -105789404, -930975469, -1448696027, -1351440108, -1109912872, 2263095176, -1077094239, -589076364, -270775842, 912511305, -1934763730, -719310079, -128353925, 358271132, -498713768, 217201384, -559791243, -425731500, -127780631, 513081393, 560630530, 462075000, 2344565034, 118704937, -473893986, 85011539, -75785921, -372956948 },
    { 1166870104, 1105571486, -72683957, -1662963272, 1826781056, -215042668, 237916588, 422468570, -541703668, 1121383163, -993007915, -247198648, 24247433, -1036906632, -300366894, 31398831, 687318504, 840282793, -270439735, -1234455655, 318684748, 707517438, -606467177, 428068320, 396551610, 674111184, -631543410, -479710085, -1739595586, 586669392, 1263276587, -1311751903, 482039224, 1268163436, 300557163, -854289925, 254281094, -1535686619, 160405298, 1327984865, -637940773, 1349891066, -333749077, 1096151182, 670449582, -937946539, 214630741, 1456878927, 110875832, 1273216863 },
    { 255855307, -719302849, 55924646, -423750983, 124250908, -256050646, 1375578225, 1667402576, 264393311, 687714128, -1553348963, -236831446, -857107634, 826834860, 89061070, 436484750, -183678308, 841883102, -395797920, -466316647, -766523409, -187573875, -579171082, 2268569000, 227983291, -1052512128, -1312179238, 916325034, -770325582, -147682446, 480801872, -772858580, 303393727, 372272253, 461240671, -365237946, -230941542, 1011012613, -113315796, 297509489, -137735747, 821092890, -619717446, -394516228, 381117274, 579234355, -1289919354, 541620017, -1538982441, -1558533800 },
    { -621610755, -1798566687, -5353218, 110013714, -1624768404, -595927056, 452135889, 84306740, -437658540, 564086830, 1462110044, -919334949, 431830018, -858069405, 78917711, 99883931, 512347392, 1523413907, 984279449, 501182617, -1202530394, -1629356177, 1198543574, -266019867, 969109170, 1116262598, 1822235365, 105930206, -1034814656, -450995450, -1602755699, 773294349, 400527625, 1422976287, -1416927196, -359107105, 856618909, 967889015, 329170077, 499811127, -110694377, -216971158, -1041639512, -175999909, 907622674, -403847740, -1091998475, 341265577, 1268572877, -171721382 },
    { -565698388, -155476393, 1085546230, 1417527546, -303740591, -536814209, 1631157361, 811481575, -120509882, -452018933, 518727396, 760858298, -301680815, 525112504, 707387768, -755992429, 2095248420, 549712846, -624156874, -629081793, 308411937, -424142571, 67295961, 477147228, 535311630, 967208570, 128210745, -527522890, -208253935, -1000072725, 559423235, 745051719, 1018358552, 969955062, -548785628, 138061778, -1760014023, -480762527, -522667533, 985842250, -1154193608, -1034910580, 1550974566, 273623315, -729578456, -970344508, 1262175993, -423596890, -493798900, 580186752 },
    { 1006853470, -883380338, 1953504822, 342196235, 843768403, -550772310, 1519474612, -205490123, -905222983, 92248549, -1328479527, -433622630, -468419636, 578027112, -178565236, -410909205, 46392575, -1822763124, -29689785, 232446511, 90457028, -719174070, 246945083, 767928347, 162219833, -2598119249, -378567794, -1418060057, -581032636, -674408272, -307701350, -343033713, -465699551, -211870349, 1292940651, -269998173, -589425494, 324278611, -777127509, -1063848269, -378438191, -1017825515, 853268941, 667232811, -581602762, 1343366221, 255752461, 39157613, -1021409429, -1331818852 },
    { 1020346955, 289919588, -1601724947, -718580033, -1401472545, 16651441, 418075027, 1509749376, 1065895466, -167618353, 1021877173, 468606738, 1478914265, 248831321, -161704059, -413574811, 259225085, -350239746, -1805055870, 1586228753, -630312374, -469938811, 545511604, 983449751, 1282513788, 1571908240, -1170996275, -426624785, -970367069, -466886307, -267395739, -1033958187, 555962535, -402187534, 926375436, -696597630, 1098141935, 106983115, 410456709, -756977346, -518751052, -668403854, 884716404, -116090029, 266381335, -388982938, -75343339, -149221663, -864645551, 939553319 },
    { -1369265294, -577294426, 212157643, 1140779010, -941466917, -295316710, -503643168, 449232399, 662264735, -1057086770, -1882936112, -1560721973, 783681445, -717486812, -181324035, -380403159, 102294994, 712934855, -675901013, 20089511, -635614028, -855235176, -190562099, 292317798, 1488774050, -1011228552, 454208350, -196849504, -222544112, -1465389479, 524011045, -332301339, 1513515912, -300812555, -27510963, -615143172, -1157688981, -1979119471, -34867847, -681701899, 1047426701, 225753889, 611192001, 789456011, -413869813, -1323516935, 1922857934, -466362940, 831667468, 269015587 },
    { 48903818, -514768482, 169415369, 828246326, 976176478, -443683010, 948699412, 1305938290, -569299970, -641333006, -1734915459, 678131454, -654325428, -773855193, -3965902, -422417772, 1613262160, 1273357453, 1277994977, 200227919, -865146178, -269881651, 606744085, 563247488, -664682636, 966580244, -364524506, -1736923432, 271454967, -2008276863, -2145953239, -976358869, 670844575, -75905780, 346255318, -267625522, 86911442, 2046666134, 479146241, 731746503, -265587318, -653004835, 1460149735, 59150731, 367694178, 1026173093, -353682809, 174591275, -1339353785, -288636560 },
    { -107169621, 362529447, -139279410, 1060503432, 104100756, -799950816, 773434272, 1443084425, 1208940614, -1257780216, 1911738282, 348885861, 1246670375, -52015959, 593677211, -572717878, 1330138737, 645374181, 696357465, -2122248175, 927177561, 902055004, 710746768, -776497687, -738360030, 544421740, 446637082, -129407935, 372888757, -45019501, 1107061215, 812525267, -577610195, -2126863073, -15385415, 685534299, 1404393351, -147453806, 13986888, -315691355, 199530380, -321103669, 38288376, -52575217, 344555705, 216925084, -428368490, -749877740, -236600066, -412433184 },
    { 77609110, 803067832, -1318446841, -867162702, 1046371814, -251077824, -198323542, -96997082, 1355774361, 1170533544, -426897728, -672216152, 1358965440, 613355708, 171705800, -11676693, 2637911160, -232627506, -63586073, 237591832, 30666064, 1704403172, 411795736, -487888658, -1542476367, 799534177, -469409517, -489524754, 1623080776, 214394467, -283322314, 552214724, 645821464, 735345467, 506780744, -151917880, -610108808, 515023387, 735001511, -1172293449, 1117139696, -562976666, -253213288, -723809005, 662130927, -1402310160, 2187805167, 888640572, -14501598, -32758864 },
    { -1115043359, 1012044365, -1702494021, -717735809, -32884933, 890379180, 997993447, 142393701, -141692980, -376956634, 455985743, -2066021847, -46190309, -349444350, 115304867, 81624466, 1233382514, -471051271, -532932563, 174622538, 43586399, 186217515, -755985959, 170252227, -192648208, -1851309646, 129463806, 635079419, -389801640, 2084268876, -143771545, 504547569, -910775688, -740467016, 300818081, 519103112, -1753343616, -1305979178, 1766588448, 1040507786, -1444533186, 1207117271, 545173223, -926741716, 192957727, 608671538, -66365101, -776926822, 1069226918, -102031318 },
    { 255615156, 1121926917, -738899688, 595209802, -89105013, 8907052, 413931196, -188675079, 1463504412, -1409586156, 1396184, 1824557944, 489593688, 1472373715, 10943641, -1692533640, -530388705, 480690790, 910309702, 1203776768, 72556879, -1866938001, -1525148494, 1195404169, -394726646, 1185691997, -198875674, 1221382197, 438572273, -1032957048, 984839562, -1295359726, -1095923992, -967561487, -2099930970, 962655460, -681692319, 1294275879, -209027141, -1235176183, 254156871, 1075760841, -21407326, 1004736945, -1166665924, -950403605, -1316650872, 1239615269, 120829048, -35765786 },
    { -659403090, -747205458, 471961732, 90328118, -893143242, -149733695, -1155246229, 301223133, -1410334621, 1818406243, 68479577, -808312638, 500279316, -844485638, 25369296, -1422993298, 839079541, 177854868, 339625906, -1795466905, -1456788374, 1334718274, 118420873, -246736296, 929143246, -523446205, 1752010053, -492372840, -129890555, -820548958, 255363940, -623138506, 18924157, -248199497, -2093023942, 479864903, 253737575, 551697132, -673490974, 701971181, -728008783, -708309304, 135318796, 186346308, -346073511, 506210240, -950435215, 284954116, 754083573, 3868875 },
    { 622206727, -1058411228, -999445884, 49897771, -238180026, -1146351279, 157432788, -829863837, 127861993, 939148991, -670421928, 1428524713, 1411022559, 889778168, -784091182, 921357979, -778143292, -1376529597, 863798440, 1145510217, -220123010, -590973528, -252718714, 178200794, 704367262, -1587641733, -471536997, -687736765, 1081221174, -246937423, 1130169468, 1091114299, -718695598, -131959385, 371447678, -286724869, 475801964, 1101733356, 125051361, -1272384236, -49342831, -50550697, 271675567, 1569023423, -366503971, 1433926210, 1165898775, 245278575, 2070414842, -100143195 },
    { 948239230, -109094552, -482486887, 1119472184, 486447709, 1020869252, -981087747, -503774731, 952400311, 576106144, 74601242, 17619936, 371199727, -793654845, 1772390735, 88714589, -275379545, -558740623, 371225411, 324998198, 540460536, -538996503, -4444143, 316149953, 648734115, -152531823, 695825265, 773553978, -666341823, 250610464, -26069983, 806312802, -472158975, 279429967, -11969962, -838275031, -626794563, 833001754, 1985884435, -199388756, 849179475, 795277924, -310113272, -1825960377, 560605750, -587077639, 20198047, 828953135, 776907058, -221163108 },
    { 1192914652, 1320307827, -2350271887, 361833061, 947473295, -1004546488, 660506984, -503132527, 1926505926, 24652135, -1193187746, 665907418, 880026020, -751336482, 921542079, 434946263, 224849014, -923879855, 1051427433, 336070040, -959788593, -636878570, -467244516, 1217593774, 111600681, -112084825, 138359673, 261598001, -870192519, 968114839, -1689845741, -1497663500, 56560545, -369020278, -310227163, -373777386, 1183731144, 266390670, 376097519, -189254004, 411376006, 271101142, 1099464859, -1036402203, 28322535, -79638125, -9716629, -51125751, -22047206, -168507682 },
    { -2009802344, -1577254044, 569460764, 293122497, 123889177, 836393027, 1160804522, 418304560, -622685997, -230988974, -35662401, 519325136, 1507118498, 1877268982, -128788355, -454794196, -3475565, -235884974, -1296107466, 349183259, -260417793, -1025483141, 321771784, 1311147960, 789201434, -266096754, -331882390, 615376465, 1033780294, 716099507, 215738497, -280663856, -747168023, -94713121, -350218083, -452289065, -861320410, 75803252, 79145547, -360605446, -1153233954, 91229127, -1669534887, -82170748, 1123455435, -551107249, -687924249, -604075316, 193424848, -1587546183 },
    { 294177200, -110447061, -191240779, 805982012, -355847075, 269116217, 359647083, 503528709, 1249517816, 1241444123, 79798761, -841995221, 462703636, 1196130614, 441382690, -505121382, 291181172, 1097912414, 118027915, 652615862, -505280389, 1008089801, 1324323390, -493342892, 613721357, -1036972764, 1128082804, -1490783828, 958033599, 339531057, -356277799, 85597601, 120700346, 429377953, -651030285, 891637320, 122523316, 275438282, 340595324, -2135178048, -131492115, -723566286, -607632600, 1692630333, -950350411, 1962367552, -378859982, -2803957366, 795252466, -1546078592 },
    { -932103388, -79807726, 1495467587, -107932022, -705971475, 644437738, -876190743, -628058236, 2035460563, -528777781, -2075644751, -194060298, 470934176, 1267274960, 1184520976, 296181560, 706073803, -670440399, 872609127, 432583515, 485934011, 900343995, 1068783268, 207724515, 389949780, 1786572927, -872184693, 126851818, -765933505, 800127971, -604327188, 617960760, -553077906, 206217125, 784938687, -261361175, -1728209977, -622069900, 899055093, 513711941, 481711518, 329933606, -176731762, -916316285, -56025556, -1941216966, 371882892, -1462204908, -567654769, -219207553 },
    { 980119378, 160135681, -2084840833, -547784636, -1319358166, 836189748, 543830397, -709679227, 654684366, -1028616817, 891000325, 18677878, -873490440, 1510582161, 295267165, 760376830, 393681055, 719141047, 127311996, 475252268, 839095811, -440594614, -590220882, -1148480759, -1622013329, 1405800791, -680207250, 561934502, 1024433617, 1556605039, 91336170, -825589909, -808067013, 1072730055, 790527429, 798167439, -208769519, 882735961, 4597715, -835398220, -592647488, -1055104553, -1247892961, -233163493, 1287490551, 849963513, -610449695, 888898661, 587459969, -792566012 },
    { -1083819354, -663482995, 1307831814, 111858098, 404239566, 155498693, 732491174, -1757835980, 659720383, -11614904, 2618388374, 271265117, 93919404, -802521543, -545727038, 1547647946, -753489299, -309583298, -1866211526, -392172551, 1331698954, 1747877611, 1210076738, -255999652, 536913321, -458137393, 1069544640, 986717725, 44308072, -355119589, -679051054, -1240056367, -109449184, 44428707, 395367977, 2485445099, 1165479393, -448780644, 38667386, -1468106387, -448478352, 145785335, -240560912, -259394211, 268033632, 284070431, -74090871, 1353608689, 668047449, -280270627 },
    { -232025739, 584709869, 680333686, 250031895, 274471712, 707739652, 589551808, -366197403, -848468258, 127715110, 2453790798, -1763906505, 894846346, 58822926, -209470762, -507771198, 649930460, -628649243, 490167418, 844980287, -88474140, -221297079, 182792906, 1099749954, -1632083372, -301477143, -561271004, 1530136680, 302277377, -1309093342, 583826320, -316615251, 1251046311, -665723084, 893433770, 2224650059, 1761141424, 342704596, 1124190337, -1166841596, -1676413294, 292418867, -687808357, -1602032070, -3369656878, 127194524, -480429129, -651534747, -523540162, 58817177 },
    { -258820457, -784135973, 902851717, 1813216373, -273200310, 1390662175, -1029092218, 262465174, 614878280, -31943602, -494979122, 636958965, -495779119, -1951559746, 508767112, 188661783, -619586605, -1072496993, 1372153044, -36066717, 1279661458, -929716035, 986449634, 902206747, 230079415, 1506705516, 525597913, 1685443298, 2974649303, -998182809, -1031583567, 313867277, -602918829, 1282538451, -1182188336, -195863994, -1486673208, -455458751, 475632196, -1340718188, 355136097, -688989905, 1835553053, -206333842, -324542460, 683939759, 52782863, 866668048, 224648028, 860859538 },
    { -1020045107, -327777897, -355827085, -1013770006, 258473761, 1165951488, 997096737, 741503876, 61339815, -569977956, -1993807124, 227987557, 556835124, 677597305, 233795815, -638730620, 506445551, -167251680, -854224715, 163980246, -347977360, -511609956, 965431744, 1446689442, -262656728, -332715347, 279653835, -794304375, 470213260, 244831284, 791134270, -1611773453, -498514575, -577005184, -233650836, 1205703785, -273988742, -965370671, -291217780, -831276282, 1657470848, 52352516, -1250503995, -1495839173, 629681219, -1021713979, -624065054, -625995154, -461312207, 87553560 },
    { -456082075, 355497936, -24768859, 1147370699, 915240183, 814090678, 962646401, 445477155, -548331627, -544277893, 1139397707, -252798509, 1127849316, -924561709, -581801425, -68205053, 564035368, 235475710, 122359024, 220791067, -791667199, -263301591, 1333788596, -1548261510, 627445431, -13190242, 375209049, 909847089, 851099919, -662853605, -247852515, -165404823, -187323283, 1148861808, 450036591, -433285659, 589189956, 178392207, -121300748, -1661905318, 254359547, 406811661, -946464601, -210173922, -94753787, -502848065, 1016615794, -614929881, 1702514777, 288925993 },
    { 414804184, -415750542, 705674027, 851011083, 424665912, -252279227, 655201949, -50133626, -732582042, 1595606961, -327121602, -440401026, 405189596, -281239966, -1629171238, -486818876, -1361146255, 1185840627, 212673285, 331352283, 1571144158, 978212217, -524947947, 99941198, -59932418, 20635633, 370755219, -14240531, -109070259, 35615784, -852752890, 1028804293, 85404073, 295736591, -629797307, -1070603804, -78762845, -156902590, -807850050, -840965086, 227677258, -310060293, -3700049, -325156793, -1984079827, -1307677137, -2124200248, -57376243, -1058808658, -99913896 },
    { -440303844, -828432151, 1417871423, 126926132, -856150855, 222187521, -2082987062, -1954809288, -2389633666, -961901486, -1018346613, -903368456, -497205120, -247879319, 46722216, 543733178, 108509548, 854760065, -7559643, 540208856, 299349952, -452347250, -813825843, -296348470, -906042792, -987196255, 760983951, -27439530, -729787703, -39990600, -70565567, 507548656, 492073956, 425081858, -238555266, 374159694, -976755102, 1288968652, 256946076, -723740382, -655011746, 65996739, 2535249, 1395942921, 358624450, -1048246839, -192614428, -8381358, -608128487, 272862358 },
    { -604818868, 656697762, 497920786, 1417676727, 3339588, 999697883, -299874539, -303864344, 147187384, 758285887, 853808867, 50007376, 1079278995, 89440516, -654124623, 529652948, 1026873570, 1103628933, 1094795666, -478014552, 987242229, 780787393, 1188366110, 1854294645, -248705989, -400890756, 435396249, -62853063, 585319348, -987926098, -653333897, -304592499, -291122735, -489962076, 92764098, 864685959, -766914188, 141289420, -791607631, 1766821964, -347734242, 866018550, -520611235, -713276783, 120138502, 845989293, -1053174343, 493299965, 1025389399, 83921676 },
    { -1090317728, 148990070, 1570500596, -253358918, 142433399, 1146962157, 353828029, -477653725, -1412736038, 527607191, 235200065, 934930701, -1207660570, -8727264, -868874084, 172785977, -135430085, 286600916, -1357882692, -601540011, 125145394, -158929065, 75417295, 1631240439, -1090363381, -1520207017, -275697433, -1955370063, 284531619, -139261280, -1064754753, -1364309532, -673534061, -122815353, 271473621, -1029525617, 1242324268, -330985659, 599236431, -709420161, -446639115, -466427423, 477432478, -311121508, -1118204630, 1208482115, -1093394860, -977401176, -531222731, -709853932 },
    { 428267256, 2178016590, -694980867, 1185617290, 333922361, -151517373, 1399250162, 381783378, -1577928468, -13953911, 639587580, 72460114, 1033011641, 545760377, -611613115, 1201287358, -581094618, 222037921, 146211306, -521175083, 287268638, 92362331, -330046600, -516180971, 1178281246, -292776666, 433806283, -452825777, -645907082, 1147175088, -393241523, -185652746, -1153648022, 1884716880, 121587053, -989377794, -1473421578, 1035139855, 18297036, -246604352, 354894640, 1182022675, 546512774, 466828007, 433569964, -436481642, 147880156, -403598370, -1159714215, 1186988878 },
    { 263173098, -973909326, -1486735817, -185078474, 15856619, -1570677919, 162841104, -611278491, 1379745742, -675198168, -132189718, -16041314, 1302018378, 1336765084, -17912450, -962759476, -366235175, 269722831, 277676556, -1065660434, -8119985, -104381251, -296374613, -142595769, 1251941846, -440719654, -788800269, 469489210, 423316561, 107205756, -247979230, -1239568107, -718465580, 1144900579, 624393381, 343379382, 595874404, 1088611820, -1169119880, 413370085, 1138697745, -180404328, -3831137, 1114612290, -430741110, 1746302110, 1132260851, 236817097, 1161256811, 564841044 },
    { -415752946, 268145865, -962789339, 681246187, 2228841494, 1011513968, 89505677, -336670502, -164178341, -704692570, -2548017, -70776100, 467136905, -110881389, -584629991, 137804279, 236807315, 579425059, 1002388196, 583566751, 861635463, -445605128, 1217413848, 1299188880, 384018211, 160607398, -107602421, 249218077, -729126757, 720196060, -1181250009, 1541438655, -418405533, -809855371, -344589211, 1446458747, -413556140, -138866140, -422551844, -54360285, 458753349, -756583412, -130212746, 386948120, -1346392771, 95257549, 1081220215, -631782225, -150926183, -156991833 },
    { -329516419, -888463564, -1904467955, 42345836, 859201614, -500408577, 2065540460, 496586467, -1269331693, 157574091, 249711061, -129576214, -480522027, 386816637, -1240701312, -506087159, -800547595, 1566646212, 423866772, 91634225, 436804730, 1241326861, -375014598, 645044702, -134550256, 1647506987, 11123312, -336026128, -1474726538, -509447089, 207593694, 158283794, -1394514675, -152995390, 1631695017, 1060358682, -757531686, 1017142119, 1439029899, 1326757962, -3026403449, -660232956, 1398221471, -52654339, 451762315, 2200314342, -1396094518, -421774886, 87282383, 1097432203 },
    { 467856683, -362204555, 1502728598, 1071399340, 471521905, 171604386, -992745096, 255711513, 1214175823, 815438929, 888140529, 1216484802, -235776718, -641455076, -272071289, 678632144, -1427909413, -993643005, -1316992455, 1644538834, -162370110, -741868190, 98893220, -131121284, 721331779, -656308618, 415919317, 659239116, 1555641051, 1886820996, -612259998, -1313782277, 1176894694, 803134969, 1143307207, -740331112, 110930398, 962136045, -1091567045, 1446392792, 530572796, 1092025375, -31854085, 196924419, 279693419, 859674402, 525744643, -381336076, 730427831, -1472661635 },
    { -1703355837, -444358252, 310671757, -262856838, 698936152, -41647275, -159080341, 1474678439, 1082502604, -71730483, -1146116841, -887313078, -325304987, 548169508, -1505791895, -738774422, -1382552200, 1083517419, -1143041488, -264931598, -215491491, -1052762, 1118578967, -631581569, -1572242908, 1003398076, 1149471169, -458627123, -209506518, 1413843808, 1735359926, -287374531, -1351891121, -276177957, 27161065, 858871019, 1250125435, 276157055, 295278505, -379816504, 683668061, 795001203, 1083014065, -2543941, -1992817941, 1677330582, 297631426, -996380330, 1000696375, -56710400 },
    { -691298753, -308496321, 398982475, 555836664, -349085244, 1447481677, 325927231, -590628070, -678514825, 911072863, -732465873, -763854345, -137016740, 565130893, -1092642267, -1065269641, 482408616, 1045595976, -804098057, -915095336, 503312759, 1224933228, 1835683654, -1261858928, -1006077768, -918398879, 949910534, 347783764, 868106795, 30992751, 464496875, 353001603, 851027975, 234625885, 341028471, 748628878, 495041857, -468302958, -979851783, 2249289323, 76690816, 231534422, -1528837583, -449378329, 208549970, -1062443681, 25518982, -506295148, 1215367292, 35396779 },
    { -521772745, -992798523, 274097742, -721159416, 273049810, 969714643, 55626171, 115816425, -271499889, -477183503, -758832119, -123721975, 552576266, 653278456, 513155542, -452605267, -477181305, 998313247, 1000074140, 1578815194, -573210040, -751660157, -632697129, -569944021, 154516378, -695284305, -727974114, 313976265, 707328459, 771814060, -74684171, -188420738, 457180987, 316786871, 12970202, -585038488, -879619341, -29271020, 340371320, 441726675, 468326290, 464275803, 860257592, 37271003, -1474273964, -1195261215, -1354415966, 691287061, 1765082557, 1649349206 },
    { -44818246, -427728218, -761092573, 617102744, -720229898, 813855078, 213985417, 1092150093, -1662598340, 977618596, 701528829, 633566745, -506867572, 614739890, -782312299, 2603574134, -1624650597, -2083489394, -93781685, 758700717, 1840673303, 1556539459, -162727174, -1202040999, 567629719, -1024548269, 184132112, 137234293, -1550688995, -54218629, 724852985, 554190953, -342668839, 1106271195, -519509890, 54020177, -117690555, -898312605, 321620556, 1493771837, 391196883, -1506027489, -487117914, -672492989, -179612936, -89013833, 2087725630, 758490111, -1089123434, -1013874338 },
    { 771532505, -487156586, 1069275162, -1011119203, -774260839, -701661989, -1208684948, -1410979641, -162751427, 229139798, -842841785, 192525400, -722859251, -508370871, -616624723, -382950577, -97254044, -105597398, 894351781, 9869443, 587742743, 397401105, 743400452, 227268362, 560421675, 1263994028, -383382558, -1550973601, 1336506753, -144730399, -388884638, -997393417, 736726176, 309217460, 308951435, 1121340722, -1276563736, -25048122, 1422678683, -169167510, 741645496, 776130279, 532194239, -281329940, -26040808, -34310720, -96591866, 423118279, 1423868514, 1217282116 },
    { 1101510918, -1008561674, 542333255, -81512933, -691272921, 621630717, 179898563, -118279633, -1471881743, 620118139, -1105926254, 330721542, -210184114, -582627062, 2390814195, -929574379, 992040968, -788518406, 212980410, 312468301, -389526596, -58117862, 1086660402, -377972571, -70207157, 809315652, 458551436, 743629228, -682317633, -1056368157, 833415571, -1341642722, 1933776287, -528990448, 511729293, -1025945990, -1003620041, -250862600, 97909943, 440032961, 794414955, -334313406, -1685171066, -137376577, -35892994, 72287499, -868279125, -127579366, -835495350, -15887100 },
    { -795070063, -833945907, 312013266, -21879620, -1079733651, 1622058880, 1155185401, 38483521, 1404310792, -400645082, 17387219, -1405035870, 840533907, -1775405947, -1172429393, -443109611, -1454021071, -534318512, -233476578, 766233381, 514828354, -245493211, 1523220411, 779069003, -727543765, -86108446, -415032676, 105204945, 358092909, 904545738, -118222178, 699307091, -925171530, 1723386635, 474536254, -415761651, -254617762, 56206825, -244769059, -659482769, 802731894, -244763188, -1203100279, 42664821, 280527705, -372339583, -752823157, 607012607, 150978533, -1402642183 },
    { -977089315, -1546576093, -859911022, 554225328, -597673646, 30690056, 1604957299, -19483274, 631328027, 1473273790, -130732220, 1106945834, 159756089, 699457337, 963935786, 669298875, 37991411, -691559160, -376474471, -508564487, -1109302526, -480261859, -363713663, -509005928, 585685218, 355265536, -1011560788, -1335568270, 549217020, 191681403, 544851611, 299327891, 162598966, -51305280, -638254657, -692489533, 562990586, 608768706, 491235292, 313918648, -305901733, 348827485, 357577539, 395175866, -593493060, -1526296156, 656504832, -57780637, -244412317, 230656438 },
    { 631846553, 1402874631, -332798188, 2308705748, -267470408, 1869610384, 252878014, 564459862, -114435907, 1819107517, -721016351, -5634740, -887871812, -1316447235, -625379422, -1162684788, -623492294, -248307932, -79475511, -547826771, 631885000, -847795140, 386305515, 1585744157, 834111359, 80356429, -769075791, 238127807, 976195563, -476168377, -1131551045, -297189970, -840483802, 185854278, -46915232, 984400300, -552399495, -70992884, -6457078, -380828552, 66979431, 353655868, 246044279, -58522331, -1078404919, 992138545, 470933062, -171454029, -393030846, 308959577 },
    { -131565694, -725559414, -1923972843, 2061765691, 272367297, 320001549, -2278828167, -599062414, -334860779, 2043128595, 1056711683, 749981824, -92657616, 522612529, -573162577, 421300188, 40671460, -489434836, -52112663, -677678100, 1172424225, 539301532, -907757169, 384711291, -408170697, -188753619, -371130500, -199602333, 134673703, 2277524632, 530125062, -838761106, 1211385691, -120939461, 1402177503, 101581903, -1284082964, 871073391, -814782437, 220402429, -642949852, 1322642547, -524015335, 863194689, 893283984, 1377579025, 1438523502, -551013660, 118391659, 850582744 },
    { 529360868, -448519754, -601015836, -42485426, -172826548, -2562902388, -1040261095, -732946689, -86651137, -1117275462, -823339762, -1005247178, 841570080, -2026549025, 1306337893, 1579955151, -576935505, 1722859751, -210779741, -187750325, -425719652, -2093010901, 1103045354, 443672412, -719040633, 63156327, -565509123, 587130497, 301788662, 462355709, 472396332, 792901692, -1397577214, 1039473750, 824145786, 52256039, -2760745710, 385541388, 2172191283, 270194692, -6468673, -31174708, 1270574109, -1188967328, 1020494163, -729087741, 329890333, -219574106, -1167374141, -165006220 },
    { 36180635, 179313052, 985395665, 880986099, 43581348, -1468941197, 733169241, -41036622, 1398390048, -1127323775, -1170733087, -896222649, 1326435005, 2357720579, -1692813697, 1524218069, 842119837, -566100156, 315738944, -703849567, -677630067, -272233740, -647377494, -833467717, -276421913, -193826859, 715441914, -473382017, -680208420, 127657484, -227897437, 314523404, 749475653, -442331970, -682812139, 328960855, 995571594, -349599845, 1169923431, 1418184712, -565539581, 651854097, 720597432, -469732727, 667664701, -817764785, -564056562, -1500312165, -217980772, 594574654 },
};

const q32_32 B2[70] = {
    -144272, 120537, -1915184, 588407, 232801, 1225478, -1083675, 5726, -307751, 4823810,
    2396771, 3347163, -3428215, -3825800, 86142, 350510, 7974236, 4202006, 14008087, 9469924,
    -2396592, 2640429, -60419, -226324, -945240, -3494464, 381372, -2479331, 1306479, -186759,
    634460, -2878011, -2653870, -584924, 2717610, 28809, 5020895, 3175970, -4417740, -1188294,
    -8830297, -485412, 412082, -4889911, 68163, 2717011, -2723509, -160341, 2155321, -35331,
    -185742, 3134283, 1018300, 6676827, 232270, -975194, -769015, 3897715, -950096, 1028104,
    172881, -173518, 3190581, -4674711, 1310735, 4624, -821984, 1610378, -359263, 4768997
};

const q32_32 W3[11][70] = {
    { -634795390, 486103524, 203152914, 376998072, -463650368, -71622592, -463884378, -613636315, 410922251, 83150945, -410378123, 985778951, -434463319, -602758954, -732574243, -143917114, -423391034, -895078162, -121288963, -112900422, 58891300, -524226622, 125343310, 460578473, 1080556128, -197723139, -1417866910, 44065340, 1356560566, -1023856082, 154445469, 407429783, -758737070, -1140167998, 345339870, -105907055, -852326126, 170673742, 127327285, 638002863, 377872858, 185303520, -785214198, -98447238, -364108132, 456055730, -154722221, 852882733, -1045617618, -103251282, 456474520, 1260523609, 1059335906, 261548341, 523632778, -237232861, 661865012, 1018565015, 110695501, -398088807, 1229522781, -397154790, -717480203, 434014318, -525851273, -366615228, -1147267793, 27888883, 1394732689, 650431552 },
    { -848528974, -471158747, 376564798, 385218362, -246696408, 593568226, 690806657, 1597350826, -663540692, -1197638482, 448293380, 195617351, -575767528, 188119045, -1005688351, -843237968, -820357032, 130581260, -677303616, -247130546, 683865842, -511971535, -341531687, -3896199, -1538207989, 574113598, -355191962, -948155744, -310956739, 704659038, -120732636, -976530205, -197194553, -827753466, -1588222700, -331933595, -407427079, 1019580637, 865306707, 722258604, -51824225, -959255641, 614767293, -220551495, 312441190, -156132039, 145996505, -1096741056, 625160487, -728294536, 45466534, 338155241, 98160248, -319627592, -159026197, 583192292, -128886298, 289650249, -420763572, 461447692, 745873865, -542769563, -164224983, -165841255, 480981596, -253768758, -784740508, -166287394, -957305291, -58266612 },
    { -50576285, -227043859, -1403945501, -293614333, 284707301, 482863356, -19630094, -989647225, -545638506, -620644090, -182573722, -576748590, 467042397, 2044237820, -309330185, -800623597, 160156170, 314762092, 1114913794, 1096457258, 629369123, -726306352, -489413775, 468089937, -1236965274, 677915325, 619731262, 945355773, 1462367828, -2366873888, -157394731, 74278899, 620592488, -668184327, 581177444, -635613133, 71971462, -502875156, 551498274, -1116708131, -245072426, 268126341, 554436482, 920018869, -440551076, 142173566, 24281319, 216395120, -119951764, 557773437, 294721060, -579307847, 642716533, -1306040996, 265246148, -646841958, -1562703969, 2356614370, -1229793120, 403078392, -362254675, -352329817, 353761449, 847491197, 807515987, -464944948, 610623145, -451006586, -496356202, 397515016 },
    { -254796311, 393380350, -1260126961, -224818155, 861226035, -789309911, 1208555979, 105153184, -587240335, 317883772, 1339876223, 1368374749, 834350615, -54745167, -161140001, 271388126, 852739826, -770011348, 737814531, 564459549, 232408063, 209758485, -1014171657, -942560014, -402652007, -1221041540, 1356407011, 221170508, 275364620, -271997718, 1597621091, -202906772, -681539209, -347540477, -836017921, -1368961800, -300961885, -118680048, 447503621, -1214368490, 693493624, -626731884, 192732079, -1512879117, 91043761, -487766304, -404623044, -335317602, 216993618, 508240543, -602076581, 698186431, 1010734359, 1040244649, 897464105, 22958959, 686081467, 653170564, 954202130, 1312838745, 55111942, -461009989, 589961842, 403082848, -160994644, -266913566, 164155327, 264065602, 1583047387, 527608519 },
    { 226513240, -1868228931, 185629597, -1634926, -335696882, -650965997, 241383113, 772152183, 625209461, -302326178, -238089166, 225789653, -1072975987, -341396156, 1001303193, -734818176, -690215159, -581367218, 1987947703, -766310757, -638704936, 775749754, 841548814, 659695600, 203830384, -308672872, -498633093, 817133997, 19962480, 866151978, -548827675, 741580263, -184022791, 999821755, 20108832, 209168342, -1047430774, -780607487, -590037680, 1186085044, 1381775709, 54630803, 1719576686, -86780901, -943321789, 100375470, 1734222057, 1390799161, -528094368, -10012320, 204278223, 439306326, 982487015, -1065434626, 676056390, -1699678, -455411411, 148965598, 761598276, -237910073, -852182637, -554734643, 118523610, 473375762, -102094566, -1225460361, -149198543, 819126848, 85484174, 135531596 },
    { -331099861, 1500494130, 1259151902, -517896601, 111889391, 784050242, -286854395, 1757268644, -36939728, 280980831, 66499737, -671570658, 610483538, 404906908, 301263773, 252617917, -99690891, -478961321, -1944834793, 52387554, 875324948, 439765111, -864266478, -230022711, -948898196, 854857627, -349633391, -1284953843, 810290300, -106461680, -1066364612, -496206160, 826831870, -891480350, -279327328, 993236716, -1888274192, 562082156, 1422113219, 618868342, 2001241015, -342381928, 207810921, 383213871, 15625037, 563503309, 389273195, -1843579386, 1057063068, 1040399550, -1226414015, -1174903438, 711548264, 219647171, -627604445, -158514115, 245218414, 478464460, 808316765, -353241666, -617618775, 128011627, 420482101, 1029714101, 1489311545, 594437800, 468470317, -469848919, 519077987, 970259684 },
    { -358622111, -590978308, 196656226, -364774260, -148374122, 650584824, -809270063, -325137414, 1012101342, -480065460, 429280387, -666650893, -410367462, -1243632136, -212830615, -220131464, 325435340, -1575577300, -135286324, -459286837, 263204182, -50778237, -366844509, -70025856, 726310546, 547233930, 245256088, -1070850030, -663509449, -2168390339, 767051697, 239755003, 296102824, 46026550, -27961894, -1518207759, -260018942, 737744414, 611184476, -667435908, 345572483, 770034304, -144708142, -911223079, 113528180, -179046108, -22937111, -525367825, 264512314, 4501558, 298431148, 167225220, 39227972, -302492439, -353817393, 642352897, -216272772, -623582019, 216920834, -70257237, 1339551323, -323668101, -417698732, 490846339, 579044957, -329224371, -416423083, 403170415, -310661047, -424281935 },
    { -307227411, 279588607, 568571871, -857578498, 94327913, 95696440, -438058263, -649105202, -112142820, 916747658, 325077915, -65487520, -459376619, -321752265, -46072908, 28719404, -1081544608, -315310103, 786625775, 763732067, 1233967071, 204373054, -666080093, -1052673288, -938430263, -63399956, -99403972, -825833242, -300817781, -869587063, -974562156, -762062728, -454812732, -208349080, -517247937, 226623549, -1229093663, -747629492, -766254466, -350137116, 359334795, -304881736, 1056758192, -582699898, -473166987, -558655855, 90274467, 209839634, 133625751, 462139797, -1096939979, 1051646320, -530677440, -102528272, 390149257, -406689829, -541275066, 1213352903, -431601781, 209177544, -1015114700, 107030004, -195910654, 488619351, 1175220701, -62902620, 501006808, 723690309, 667287374, -515333653 },
    { -216952609, 70981434, -416778777, 443562153, -76881844, 475874733, -165896417, 472081366, -565350586, 1061363218, 192354675, 448707299, -1433492707, -276538972, 888766879, 985833430, 1158141108, 1433901096, 2207819183, 895224442, -919651772, 844492862, -150785213, 634566647, 72179114, -268391606, 586827376, -886903698, 355613097, 264191987, 597172283, -1161243595, -447120137, 113750925, 1933290189, 445427992, 913722304, 207336230, -995180300, 641347735, -815795399, -1396596832, 176010713, -807220195, 561298921, 848639206, 60348798, -342039435, 178420851, -1144750538, 527414151, -380436460, -100572128, 736538228, -70300041, -746589770, -655337378, 295677687, 103731768, -145986568, 424130093, -31430957, 191725539, -805315968, 1696238480, -941572091, -392336362, -720801484, -201719688, 1214070513 },
    { -226562450, -152978359, -266589911, -79403757, 373641433, -1432550772, 1175414372, -144581830, -1055632736, -543782486, 631483637, 590513153, -621386509, 71517567, -591468134, 381983172, 1288894137, 389742380, 196229115, -1310066945, 1909075417, -24048106, -245569209, 381856602, 746823621, -68932680, -95461571, 591386871, -433467992, -493444027, 871013293, -357556053, -526796798, 192797460, 255803803, -1621399252, -499502154, -819209341, 595099666, -505086134, -199284581, -1080965227, -1146448238, 32747009, -842868888, -446001898, 1032160145, -360212739, -1057483077, -763639880, -621066726, -726628911, -138062732, 1412312738, 468077134, 544581444, 706782936, -808797722, -1064162, -712301316, 457723298, 1102285427, 136712875, 16304088, -1187473937, -43408576, 518283811, -1028430910, 142588933, 356653458 },
    { -342362129, -317160975, 1090557436, 629213074, -514728200, 35349427, 586171920, -1431246536, -178695430, 312075823, 175871653, 957260881, 312598738, 1092300571, 240613614, 1677617292, -925332842, -687622756, -196355662, -189162945, -782769081, -66083715, -1067906613, 516536379, 242032669, -533620735, 94541070, -160828904, 772824739, 486243843, 346356205, -947802030, -116106434, -303848599, -152673622, -443058011, 1182005786, -806016536, -520007903, 1096739231, 743990577, 470808182, -551660644, -1357167328, -413550858, 28546035, -1075677217, 490553801, -321471392, 501616340, 433360104, -109423381, -602831602, -556172340, 480836059, -462249316, -131955503, 446896424, 525669916, 63698574, 1202004449, -1149773950, -706713826, 883246668, 1445848840, -983808485, -307626955, -1294929928, -651194042, 209629748 },
};

const q32_32 B3[11] = {
    2822951, -1844570, -613003, 11327269, -7402174, -6653296, -2513671, 1388989, 21418276, -8418080,
    -9512691
};

